1946 32
1191 0.46125287 0.07940342 0.13332091 -0.100551434 -0.16711174 -0.07526371 -0.046332225 -0.4115291 0.011553903 0.44646522 -0.042031545 0.13825597 -0.11373424 -0.39208072 0.5429592 -0.64477223 -0.2104677 0.25090158 0.019687535 0.02172975 -0.019209368 -0.10944957 0.041183796 0.022871297 0.13964629 0.14672954 -0.28706524 -0.23883508 -0.059645753 -0.39174017 -0.358814 -0.018929798
98 0.30068526 0.08548065 -0.35180375 -0.18174256 -0.22197787 -0.060636975 -0.20941325 -0.42352852 0.004470029 0.48305032 -0.06459697 -0.14733793 0.055252966 -0.5538035 0.466145 -0.6084936 0.39367136 -0.0021575901 -0.23880643 -0.078389145 -0.108077236 0.116720974 -0.18869635 -0.03336268 0.008265527 0.23955736 0.014496626 -0.20983702 0.01488685 -0.13325576 -0.021091009 0.023318661
1338 0.10847468 0.11181991 -0.24275698 0.07576037 0.27677783 -0.38046405 -0.03811297 -0.6152945 0.02406698 0.15265495 0.1328481 -0.21110423 0.096273586 -0.6476672 0.4222126 -0.40063852 0.26740164 0.07032062 0.061388742 -0.15240394 0.008084986 -0.09778143 -0.058648072 0.04103583 0.5557117 0.102547206 0.31992736 -0.29248002 0.12991078 -0.14490502 0.11855957 -0.077586025
1765 0.4555852 0.09220018 0.145304 -0.1588559 -0.05039391 -0.1718781 -0.28731588 -0.45424646 0.10202892 0.6387468 0.18946162 0.21658127 0.025048507 -0.25549287 0.46642578 -0.6880391 -0.25717467 0.26550126 0.06593428 -0.27249235 -0.21739852 -0.123037376 0.036497217 -0.049649205 0.2220853 0.07571502 -0.16525817 -0.13360664 -0.06381789 -0.19223022 -0.3910106 -0.32339916
155 -0.40868145 -0.10656398 -0.2579006 -0.27254233 0.10272603 0.09166121 -0.19309726 -0.4521405 -0.053607102 0.24886295 -0.1258525 0.019227592 0.11003586 -0.64490825 0.52103823 -0.4975278 0.122909956 -0.19865797 0.15380773 0.053873606 0.28914478 0.19010568 -0.40170428 0.09362091 0.12237188 -0.01140008 -0.49986985 -0.25458255 0.20009567 -0.1672699 0.10239995 0.004958426
1772 -0.36079484 -0.006912301 -0.2662003 -0.32657245 -0.024774292 0.03229396 -0.12445571 -0.587805 -0.06200366 0.26643547 -0.042389985 -0.030951547 0.17884406 -0.7195082 0.33321145 -0.4076071 -0.12062269 -0.23563832 0.058283325 0.046055585 0.3102907 0.26659524 -0.29901132 0.18253578 0.13268548 0.22675927 -0.64708215 -0.23856883 -0.06169669 -0.11881492 -0.062281247 -0.06133522
259 0.6106473 0.3311337 -0.11158329 -0.34841722 -0.03817254 -0.1537821 -0.07654292 -0.41825548 0.05889849 0.3485046 -0.23118772 0.09087506 0.11941766 -0.38967183 0.41672975 -0.520208 -0.121762276 0.18614464 0.049661912 -0.54131806 0.07954484 0.18230703 -0.308574 -0.14281906 0.356099 0.077731736 -0.049217958 -0.031684678 0.17331359 -0.2889941 -0.36716387 -0.21052422
55 0.27084956 0.2707611 -0.43361712 0.06122099 -0.20537062 -0.2621871 0.0029337462 -0.5652254 -0.0054513505 0.24050553 0.023781294 -0.08649323 0.024016349 -0.59548074 0.3104421 -0.54447436 0.15893148 -0.19087765 -0.15962416 0.11099894 0.23749569 0.25520006 -0.46586776 -0.22788838 -0.0059252325 0.23636396 0.046583384 -0.10080033 -0.03344706 0.0034216382 -0.0005161063 0.029957935
232 -0.17770791 0.21900027 -0.14462548 -0.732647 0.036986016 0.177102 0.047368117 -0.42261723 0.24939626 -0.08969091 -0.03063952 0.13592811 0.18077703 -0.60293514 0.36846116 -0.32846406 0.14340457 -0.26673996 -0.10658618 -0.10396576 0.432685 0.25125942 -0.4670184 -0.05361267 -0.18362421 0.08667571 -0.6709158 -0.28626257 -0.111167386 -0.3772944 0.094625026 -0.0036906346
1145 -0.27129567 0.03567416 -0.08778566 -0.4726891 0.017784338 0.14352754 -0.05343653 -0.50259876 0.11935034 0.05019803 0.12317335 0.09761944 -0.07570806 -0.54130065 0.43300906 -0.47319132 0.19401175 -0.22624509 -0.16519572 -0.037146486 0.43817392 0.20092487 -0.50197124 0.07611506 0.002789792 -0.010549236 -0.5723022 -0.23361553 -0.17546588 -0.044029746 0.08498136 -0.22457424
1869 -0.28530085 0.17702015 -0.28689876 -0.28763133 0.2811717 -0.2022185 -0.068893366 -0.33899808 0.16893871 0.4101567 0.18362711 0.18869272 -0.032471117 -0.23951103 0.46055067 -0.5903687 0.4159905 -0.22843122 -0.27574715 -0.28312722 0.26950112 0.47877547 -0.24417631 -0.26736245 0.091757074 0.0580155 -0.35156423 -0.33733818 -0.3507572 -0.024988933 -0.20530987 -0.05902002
1308 0.33119437 0.2327147 0.34332994 -0.18845342 -0.08733143 -0.52481246 0.28156367 -0.04750312 0.5486538 0.47495782 -0.06433008 0.3896956 0.076792076 -0.50983334 0.43450165 -0.1947022 -0.083589286 -0.35167098 0.5274776 -0.34968886 -0.18326297 0.02349583 -0.066785164 0.37063572 -0.019327186 0.43791017 -0.25575462 -0.2933901 0.12151726 -0.008946499 0.06839609 -0.17734067
983 -0.10740974 0.071512856 0.086962424 0.12691317 -0.10738189 -0.19253334 0.0034310606 -0.6133734 0.045409143 0.109298244 -0.03184908 -0.1822696 -0.1364145 -0.46861213 0.5436196 -0.45654863 0.20787007 0.39179084 0.12081564 -0.29363766 0.2794329 0.21546659 -0.25805837 -0.12769367 0.17408659 0.0965252 -0.05104471 -0.5192628 -0.0072908117 -0.1641077 0.46816248 0.18788576
293 -0.021986118 0.34280276 -0.2552151 -0.052059483 -0.06096545 0.058139335 -0.042701274 -0.06945503 0.2757427 0.60145074 -0.10675253 0.3610773 0.041790187 -0.45930964 0.563273 -0.5606538 -0.08231431 -0.13788775 -0.2922436 -0.3367673 0.113814436 0.19510219 -0.1924 -0.021388475 0.36536142 -0.037738286 -0.36498022 -0.24894585 -0.1994741 -0.07302709 -0.46264362 -0.36881602
457 0.19663265 0.22718571 -0.44377863 0.022231827 -0.055620026 -0.13949114 0.2576085 -0.19882141 0.13401836 0.2972247 -0.16136244 0.27188966 0.23532054 -0.67493206 0.5424843 -0.6191148 0.09066187 0.070657246 0.024795197 -0.044229288 0.37136298 0.07726974 -0.2717194 0.05728694 0.40663695 0.098073736 -0.3677756 -0.006855125 -0.056296848 -0.19329697 -0.2976174 -0.06448241
710 0.19795987 0.21674599 -0.4157913 -0.013059827 -0.04098405 -0.13070029 -0.08917724 -0.544415 -0.24479 0.24844275 -0.104758546 0.02753182 0.0020710581 -0.66856384 0.48108593 -0.4767645 0.43020883 0.12231983 -0.16048884 -0.17798068 0.1400587 -0.10287723 -0.25451556 -0.16602613 -0.09600109 0.24812004 -0.2439518 -0.34466913 0.11273754 -0.34508064 0.2613481 -0.12299326
121 0.031850316 -0.5950975 0.30142522 -0.40121073 -0.06706565 -0.26944566 0.083646305 -0.2729935 0.030169563 0.102244906 0.5197424 0.06887221 -0.13636442 -0.30721405 -0.027894042 -0.65957904 -0.49534068 -0.35194418 -0.35411608 -0.1514506 0.3919893 -0.32789272 -0.5124077 0.08557799 0.16829386 0.021025408 0.16130547 -0.17546059 0.23364416 -0.65454507 0.37914836 0.04326093
1292 0.50212455 0.33706513 -0.21763052 -0.22706752 -0.067470595 -0.12927872 0.029753538 -0.30344188 0.1763263 0.32588643 0.051749006 0.5056512 -0.13309948 -0.4513323 0.48105532 -0.8115934 -0.15618652 0.11758258 0.24819982 -0.17915213 0.053388115 0.07260169 -0.02919082 0.28293002 -0.12931651 -0.00087305286 -0.42792317 -0.042805754 -0.20864893 0.048175756 -0.27417558 -0.14428747
908 0.66909516 -0.07892544 -0.2612735 -0.1554459 -0.2779284 -0.3049067 -0.04435528 -0.41772404 0.11901846 -0.061178956 0.5307966 0.13754414 0.008939139 -0.51426584 0.3106214 -0.5173905 0.0175971 -0.17798375 0.19579719 -0.20161332 0.32385334 0.2919495 -0.025229298 0.19415364 -0.105245285 0.44105378 0.20469059 -0.43994874 -0.047682934 0.31655672 0.0012264983 -0.299791
358 0.004854495 0.3902044 -0.44186687 -0.13760817 -0.25374815 -0.13296048 -0.20511761 -0.30420688 -0.0663002 -0.09487888 0.07341067 0.16434634 0.10862137 -0.74086505 0.5626726 -0.5723453 0.28978395 -0.084499344 -0.1804768 0.026049348 0.21937658 0.10988014 -0.45753497 -0.10653155 0.08957913 0.23826237 -0.33782127 -0.12742849 0.044267245 0.025344199 0.24218176 0.0138870245
1006 0.04454646 0.32043245 -0.3779451 -0.115275286 -0.20560168 -0.13182978 0.13281488 -0.22656816 0.23871759 0.29855615 -0.13803561 0.5532323 0.1287604 -0.70503265 0.37436083 -0.52264524 0.09970357 -0.1470326 0.014810867 -0.14175548 0.47890964 -0.17144328 -0.46108738 -0.043662414 0.16855809 -0.29120198 -0.4790552 -0.17751111 0.092845224 -0.17567916 -0.18314815 0.11804279
511 -0.36757326 -0.12140011 -0.18697797 -0.16861372 -0.031744298 -0.02601345 -0.27967256 -0.66221124 -0.061074737 0.20474334 -0.14188275 0.013692076 0.012410571 -0.53338856 0.5561574 -0.46748576 0.12568934 -0.13471738 -0.13496417 -0.04652766 0.30114484 0.26473978 -0.29593706 -0.036084972 0.106778964 -0.038274784 -0.72106 -0.2374038 0.29818338 -0.59772366 0.18478368 -0.03519223
1374 0.37138456 -0.011622632 0.008505027 -0.22078183 0.3656495 -0.45035365 -0.012943568 -0.50279075 0.92092556 -0.11075836 0.044185374 0.18483868 -0.069370285 -0.69612736 0.10468762 -0.45970687 -0.032915477 0.15705727 0.12924254 -0.31342658 0.3919188 -0.21008496 0.42858696 0.02850884 -0.20685145 0.2780792 0.24767311 -0.28378412 0.29468918 0.11496369 0.031032754 -0.101577
1209 -0.5471789 -0.5316986 0.42194027 -0.3492043 0.12807682 -0.20907211 0.066620424 0.11052691 0.29432875 -0.07522503 -0.057066064 0.019357927 -0.015383088 -0.59327805 0.35412598 -0.7633913 -0.23288785 0.1407518 0.16760114 0.16692217 0.0012574935 -0.13724896 -0.6169029 0.07938104 0.28778753 0.73370314 0.25591123 -0.6104227 0.15690437 -0.5302726 0.2636752 0.31078938
1892 0.41085547 0.11420719 -0.17683114 -0.17834143 0.41889265 0.29334182 -0.040548455 -0.5627589 -0.054497004 0.73180836 0.17256714 0.15299407 -0.111917414 -0.2752436 0.5609731 -0.5368736 0.079235666 0.14357337 -0.23671566 0.09138818 -0.062011324 0.17404316 -0.036159024 0.059377197 -0.027085576 0.53503615 -0.25969774 -0.3375564 -0.029419146 -0.040958595 -0.18837464 0.055554215
856 0.28356007 0.04378498 0.0070274235 -0.23770967 -0.057645258 -0.6032475 0.27125943 -0.31731743 0.40896422 0.046160918 -0.084445216 0.40404576 0.06369836 -0.38943458 0.5631671 -0.60242546 0.3753309 -0.30796528 -0.2695374 0.06716781 -0.13744159 0.08103354 -0.09576718 0.20305827 -0.15253435 0.36567086 -0.031459153 0.09351224 0.4012718 -0.034307204 0.3583186 0.017100716
69 -0.019592408 0.7382369 -0.23317492 -0.024332203 0.012864321 -0.4854896 0.088554144 -0.57117635 -0.47062558 0.074225135 -0.06029405 0.07382976 0.31956044 -0.5422921 0.3152258 -0.7153031 0.11810284 0.0697922 0.05300151 -0.025833478 -0.05734076 0.034355223 -0.18479806 -0.029327461 0.21147458 0.108008765 -0.03915562 -0.48227367 0.18017343 -0.28527206 0.371759 -0.3066952
445 -0.18819858 -0.007943626 0.1933318 0.13093546 -0.02433486 0.037739277 0.078490086 -0.6190839 0.30798605 0.22994775 0.18711002 0.1840214 0.060947344 -0.41031933 0.7066579 -0.5962302 -0.041330114 -0.30621845 -0.517419 -0.19753784 -0.027501253 0.1294601 -0.3218231 -0.15184608 0.26022997 -0.108525656 0.12491049 -0.26707596 -0.2274759 0.55265987 -0.2867037 0.31771263
184 0.45508233 0.2632845 -0.0980862 -0.35709625 -0.09010687 -0.20600736 -0.011391894 -0.37431997 0.6475093 0.23886824 0.06831686 0.71407163 -0.14067487 -0.5492356 0.4258342 -0.45232064 -0.21859744 0.1278562 0.22123982 -0.30855578 0.05318421 -0.0074440488 -0.0016104288 0.37525126 0.01668118 -0.0055093085 0.043314353 -0.01733933 0.23916961 0.19137833 -0.013896267 -0.34693512
459 0.2452877 0.27957562 0.02314632 0.020101808 -0.35940865 -0.059361834 -0.002697343 -0.02625982 0.38225007 0.24292281 -0.39479753 0.36857116 -0.0882166 -0.48343018 0.60455877 -0.9596991 -0.17350894 -0.28580123 -0.24980234 -0.5521803 -0.13375343 0.056430154 -0.038780287 0.0308203 -0.08930874 -0.14669457 -0.2584427 0.14065468 -0.2752013 -0.20632465 0.10206193 -0.074120276
660 -0.3038807 0.3674753 -0.10100033 -0.68386316 -0.044794 0.10268721 -0.16666593 -0.5205015 0.28505918 0.20281264 0.26316735 0.09621858 0.068644755 -0.65343386 0.13011932 -0.3085752 0.31169558 -0.34485203 -0.18857087 -0.23295608 0.6070804 0.28348345 -0.41451487 -0.045139123 0.01896955 -0.053250883 -0.6985275 -0.33267608 -0.20715877 -0.21672931 -0.063985586 -0.18045402
317 -0.34306893 -0.52836066 0.26647824 -0.54076 0.17202769 -0.17018399 -0.13959272 -0.14735945 0.099898316 0.032886636 -0.018283872 -0.0035076444 0.1818294 -0.70953834 0.10842043 -0.77865314 -0.19772334 -0.14116049 0.18013953 0.25492522 0.22646917 -0.44665024 -0.38319322 0.2130684 -0.059841167 0.67276615 -0.28241137 -0.3597824 0.085732386 -0.4851231 0.0057755434 0.37842274
66 0.28074712 0.37335733 -0.13654558 -0.22518083 -0.19421433 -0.2592479 -0.069050424 -0.38978562 -0.13648963 0.51199055 0.04142894 0.27285877 0.4121977 -0.35876834 0.70082754 -0.6155761 -0.22666615 0.5423288 0.12154407 -0.13900255 0.2028462 0.25580525 -0.36098963 0.07085126 -0.106561795 0.046213567 -0.13708301 -0.13452889 -0.17934747 -0.037883952 0.02028768 -0.012834115
977 0.12777115 0.23357064 -0.4453141 0.13082059 0.18290684 -0.096335314 -0.11584957 -0.4531167 -0.034182005 0.4058327 -0.026420103 -0.34662932 -0.07503366 -0.58397883 0.49402317 -0.40618002 0.21690086 -0.00601066 0.12854671 0.03580652 0.2296424 -0.122335196 -0.22864412 0.11016295 0.36384773 0.3559891 -0.27982882 -0.55232775 0.6182486 -0.31181866 0.07156442 -0.10053932
505 -0.33170545 0.3708036 0.009674604 -0.68536025 0.13060708 0.41831103 0.052304678 -0.4420762 0.068511136 0.052438047 0.03334657 0.0061191856 0.12299621 -0.67766047 0.35278141 -0.42928615 0.07593111 -0.36472133 -0.14703017 0.02434238 0.6052222 0.26574847 -0.5919711 0.31787792 -0.1492974 0.02587499 -0.51911175 -0.31407216 -0.25367495 -0.04146539 0.18602122 -0.33339933
63 -0.43123284 0.16008064 -0.08440367 -0.57920796 0.13716441 0.049540903 0.045522224 -0.61538 0.016494598 0.0848828 0.041520648 0.26467142 0.1467711 -0.747561 0.15860821 -0.31412542 0.31229925 -0.49795595 -0.18321484 -0.1424807 0.5056859 0.12146396 -0.51886404 0.07587703 -0.11925044 0.067021124 -0.7031287 -0.29049268 -0.18171899 -0.25758153 -0.0146370735 -0.23531021
698 -0.1170635 -0.26056853 -0.039290164 0.060923796 0.318617 -0.33290592 0.11210855 -0.25324553 -0.103260905 -0.21510608 -0.16232273 -0.1966888 0.11032015 -0.71971774 0.31994793 -0.72012746 0.06162109 -0.33338982 0.168754 -0.18361044 -0.12561648 -0.5098225 -0.58191246 0.2597009 0.1833436 0.44767588 -0.076964386 -0.27555302 0.044587653 -0.50546837 0.2615199 -0.03369088
1147 0.5061687 0.26762792 -0.19619718 -0.27717036 -0.15994257 -0.13717231 0.1078519 -0.24820778 0.42035663 0.5008742 -0.4389626 0.20083195 0.13924704 -0.43083438 0.4051377 -0.469152 -0.3233854 0.022245198 -0.1160742 -0.4239836 -0.29557648 0.22695063 -0.31447315 0.26515156 0.26728952 0.14139973 0.13875699 -0.16070779 -0.06054964 -0.40511122 -0.3189354 -0.27959418
1057 0.43910372 -0.19308591 0.16116163 -0.30755574 -0.07020507 -0.09483706 -0.06626437 -0.27835947 0.28816196 -0.02865645 0.5128693 0.17157708 -0.16646065 -0.86982626 0.26857573 -0.7098314 -0.35349575 -0.08741428 0.56275374 0.018659513 0.41082907 0.12004646 0.45920214 -0.078590035 -0.25756893 -0.023421094 0.5381368 -0.3912366 -0.122547805 0.4159895 -0.015037465 -0.17577904
552 0.049755596 0.40408438 -0.2767585 -0.27942586 -0.21013944 -0.11248078 -0.06480933 -0.36872467 -0.06407725 -0.13974631 0.31022966 0.1688337 0.08365693 -0.60902715 0.59973264 -0.61512643 0.41217655 -0.08909442 -0.2813358 0.023214089 0.0005759076 -0.10800352 -0.39148498 0.2709866 0.034084175 -0.0062252334 -0.18449715 -0.38394433 -0.08879119 0.04230678 0.025841849 -0.043419518
863 -0.5986369 0.11589458 0.08429737 -0.3823644 -0.07921002 0.087696575 0.21721865 -0.6083298 0.22843826 0.19793841 0.13632157 -0.16925468 0.3517936 -0.65066004 0.36569414 -0.38838303 -0.056840893 -0.4296181 -0.38777605 0.12796725 0.033946466 0.31946653 -0.27027282 0.20630339 -0.09544046 0.17577176 -0.45084307 -0.27160218 -0.39254016 -0.19823611 -0.062221594 -0.23114108
1033 -0.13645576 0.09426386 -0.31987283 -0.1682587 0.041448314 -0.20448577 -0.119055055 -0.31203654 0.31633303 0.16652152 0.101456255 0.18669292 -0.07777853 -0.40553308 0.72748655 -0.5876847 0.023839757 0.032517076 -0.47617915 -0.17462547 0.17530592 0.13455518 -0.46985272 -0.0743003 0.17151359 -0.008118315 -0.1267894 -0.2296056 0.062345173 0.5386633 0.06510327 0.26459596
1649 -0.46947762 0.06829297 -0.2336812 0.078585275 -0.13656297 -0.037006523 -0.22694996 -0.7057267 -0.04698756 0.26996434 -0.09624367 -0.003528596 0.0820741 -0.69020504 0.40700722 -0.5247384 0.27612823 -0.39480639 -0.18946232 0.13334303 -0.11965611 0.06302713 -0.12625462 0.1862335 -0.20080845 0.12930954 -0.4613467 -0.2975858 0.0033623418 -0.51825386 0.17337228 -0.43061194
1779 0.42822123 -0.0011263407 0.29416338 -0.4267706 -0.04086232 -0.32763776 -0.26732922 -0.24608353 0.336101 0.43824303 0.2767762 0.26214483 0.05355619 -0.38877448 0.05717528 -0.41889495 0.3293735 -0.4166938 0.0013711802 0.18478173 0.17207344 0.34710997 -0.6377279 0.09870975 0.20402612 0.2945383 0.008767786 -0.10594549 0.048270117 0.14484769 0.058811344 -0.26959354
1848 0.031702574 0.1709962 -0.15728816 -0.04575472 0.15462829 0.041038387 -0.053703044 -0.5495211 0.47316346 0.08971764 0.43634158 0.14174269 0.27809206 -0.027216455 0.69454235 -0.67520547 0.2391384 -0.26960194 -0.41422787 0.065586604 0.13883981 0.107868366 -0.5468222 -0.06902757 -0.065373205 0.18852468 -0.19237375 -0.31098688 -0.17487353 0.45496956 -0.001070409 -0.3414365
204 -0.049896788 0.18992604 -0.36518216 -0.045438413 0.117084354 -0.4337887 0.3532458 -0.57364506 0.14281204 0.07724567 -0.21586622 -0.050756305 0.38503662 -0.64397913 0.44557604 -0.674046 0.21560325 -0.032571107 -0.05346487 -0.15210523 -0.13034478 0.22154646 -0.1258691 -0.00090194773 0.19132927 0.04015124 0.03841885 0.05542415 0.09368776 0.004256003 0.27188846 -0.068462014
1388 0.46492535 -0.07528779 -0.5272646 -0.0497312 0.002360015 0.30156842 -0.05016113 -0.4059809 -0.09659351 0.7597761 0.25064486 0.103913225 -0.20406401 -0.48568514 0.5971281 -0.5944619 0.30672053 0.30151263 -0.18717235 0.0567001 -0.06693312 0.12876186 0.043000575 -0.04934309 0.0017931374 0.41845042 -0.004749037 -0.2747105 0.26811376 -0.3870273 -0.2666061 -0.117801555
1200 0.012811042 -0.6462319 -0.06560563 -0.2799773 -0.07935275 -0.062264305 0.16924694 0.07014532 0.21336673 -0.11926347 -0.17999217 0.5411538 0.28518084 -0.6057836 0.26132685 -0.7542527 -0.09669503 -0.5204703 0.4603258 -0.024806911 0.0946154 -0.38232848 -0.5690163 0.22521286 0.37674814 0.43123445 -0.31327632 -0.53250957 -0.032949295 -0.7543068 0.007428254 0.13185456
992 0.21322063 0.30761933 -0.1925334 -0.14806812 0.14814372 0.25512183 0.27838424 -0.7775369 0.22238342 0.23467197 0.341591 -0.041354153 0.3413393 -0.20915106 0.26670325 -0.5495683 0.24143602 -0.04530613 -0.08831138 -0.03393385 0.27043626 0.22492048 -0.6210685 0.021561781 0.3691823 0.32759124 -0.20144373 -0.30195093 -0.45035645 0.044672012 0.35281906 -0.31555635
1679 -0.41516718 -0.57516605 0.38741267 -0.2235076 0.3432187 -0.1412006 0.09656558 0.42372614 0.5021032 0.05672771 0.31407952 -0.22807771 0.74225295 -0.94284135 0.36694956 -0.9259364 -0.5007407 -0.24802254 0.14918943 0.35189798 0.06765833 -0.27530512 -0.20331953 0.15733105 0.2161175 0.94741863 -0.04038673 -0.59568954 -0.16322134 -0.6552526 0.14743796 0.21230929
1540 -0.3375669 0.0014306528 -0.14526238 -0.3206079 -0.14546941 0.053852707 -0.18198016 -0.60738 -0.25390986 0.27930012 -0.1098635 0.023637177 0.14283983 -0.94364846 0.27800068 -0.39395303 0.4496585 -0.28094876 -0.032855224 -0.12544964 0.2877336 0.07391209 -0.3346537 -0.24553724 0.06321474 -0.052480415 -0.63681793 -0.23177513 0.06568462 -0.49713922 0.21396099 -0.2783508
1103 0.42258045 0.34529048 -0.13918006 -0.03501663 0.046226896 0.18942863 0.12160068 -0.10159508 0.18903561 0.7216153 -0.3275074 0.4670952 0.24835306 -0.6694742 0.27658823 -0.66549355 0.31280634 -0.057249963 -0.039826907 -0.26802254 0.04793122 0.0029633788 -0.27596533 0.032547563 0.08268857 0.017368443 -0.225115 -0.22119553 -0.020410523 -0.29802716 -0.24348615 -0.17952333
1170 0.37768474 0.29866734 -0.074799865 -0.0035232906 0.028821252 -0.3037989 0.078184925 -0.5336207 -0.19703875 0.082918525 0.08027536 -0.19221722 -0.20628357 -0.5158607 0.5778314 -0.48863924 0.23450515 0.17768262 -0.13191855 0.21689148 0.3840431 0.19725022 -0.19728255 -0.19624871 0.2523649 0.2710804 -0.30645162 -0.5555992 0.4836207 0.00057732593 0.10620113 -0.16042794
1417 0.23552868 0.17574862 -0.03579098 -0.15216504 0.23666807 -0.27759284 0.13036495 -0.6622009 0.53558105 0.22704142 0.09977923 0.28644904 0.092472985 -0.35549667 0.093113124 -0.68369895 -0.21019778 -0.1263535 -0.18292855 -0.417552 0.36813763 0.10453095 0.47263762 0.15537629 -0.06501318 0.33614415 0.8206065 0.09498106 0.50252265 -0.23400705 0.1739636 -0.32680517
785 0.04635095 0.038259983 0.19245064 -0.14960508 0.044700652 -0.17132193 0.17929405 -0.52874833 0.08352183 0.185242 0.39303094 0.11571518 -0.6553062 -0.5368272 0.062350266 -0.7190253 -0.19119686 -0.10700286 0.22596031 -0.35718426 0.27750537 0.39259177 0.27005973 0.26369804 0.18959932 -0.009729336 0.8460037 -0.4188244 0.23645626 0.039746698 0.09204887 -0.3553579
200 -0.244559 0.008297893 -0.055863064 -0.26859033 -0.25457776 -0.046956826 -0.17275254 -0.54951924 0.37598392 0.29112178 0.090181224 0.18498755 0.11293043 -0.67469555 0.46607882 -0.47028083 -0.2431087 -0.123707496 -0.67606455 -0.14832838 0.2524699 0.10948806 -0.19681393 0.34270725 0.015933277 -0.15611379 -0.48790717 -0.17203616 -0.21122846 0.24583657 -0.19053064 -0.071736775
1133 0.03531464 0.34187633 -0.2730653 -0.58320534 0.021470089 -0.42498726 -0.57187325 -0.24127623 0.1256327 0.5065036 -0.0152276615 0.5736367 0.13169251 -0.13725758 0.51892585 -0.5724366 -0.023615167 -0.31660846 0.027816178 -0.40598848 0.09446927 0.22722098 -0.12646154 -0.23915936 0.28455204 -0.16441289 -0.22514741 -0.22059032 -0.5937499 -0.24849059 -0.36569354 -0.22270367
138 0.1642246 -0.15211968 -0.17654124 -0.06273402 -0.45558462 -0.16099787 -0.25802103 -0.65945804 -0.05862924 0.36626917 0.31610796 0.08495523 0.03971821 -0.11648792 0.23518014 -0.74287415 0.4116775 0.2160706 -0.25468007 0.17095087 0.30905753 0.3780593 -0.48308143 0.03279426 0.009518035 0.33231795 0.37606582 -0.52304196 0.4927685 0.08159887 -0.2502677 -0.22675978
1455 0.30116814 0.34192508 0.23838715 0.14759691 -0.21096613 -0.00554774 -0.17403942 -0.45062703 0.4600475 0.35031837 -0.13804457 -0.07672895 -0.35132366 -0.4636884 0.79973066 -0.50549334 0.07011247 -0.48759824 -0.06489149 -0.43145454 0.09694088 -0.43238357 -0.4595242 -0.38601658 -0.15933146 -0.2922112 -0.023745669 -0.21457791 -0.11125609 0.36226138 0.39807892 0.37224433
864 -0.025513215 0.31127095 -0.41017446 -0.046352673 -0.09507187 -0.02310543 -0.24395192 -0.55974674 0.43587777 0.5418691 0.2535831 -0.09412889 0.04149758 -0.21334465 0.5323661 -0.5170022 -0.031679846 -0.37711895 -0.6101241 -0.04938945 -0.19005014 -0.060983278 -0.41627032 -0.040697463 0.08428408 0.23752597 0.0847347 -0.47379956 -0.25552976 0.42428064 -0.28558174 -0.15930225
1402 -0.08036528 0.081836194 0.2285379 -0.06280877 0.44058385 -0.3808375 0.072779775 -0.4828042 0.14648269 0.29204625 0.120838664 0.2538798 0.028650241 -0.39190885 0.36003903 -0.686351 0.2506146 0.046749365 -0.20777757 -0.20042127 0.004358175 0.15299445 0.3106354 -0.05006993 0.6666903 -0.25191975 0.38345876 -0.46006522 0.08588582 0.05057577 -0.2865237 -0.052818716
504 0.3223527 0.18996528 -0.082559444 0.41107288 -0.04192874 -0.5905284 -0.5683555 -0.4710172 0.026264243 0.066093564 0.27750805 -0.078920275 -0.046344914 -0.5253979 0.09421262 -0.6447659 0.20306388 -0.35807782 -0.19294947 -0.24483745 0.0046124286 0.40717432 -0.30065838 0.19880904 -0.39633206 0.412019 0.23014419 -0.51462597 0.2074395 0.14936987 0.0858944 -0.36613184
338 -0.14648288 -0.28791633 -0.19843376 -0.15289485 -0.11628207 -0.37497807 0.09037838 -0.4110945 -0.24568497 -0.1080385 -0.2827234 0.05114017 0.0069428426 -0.7130198 0.20571393 -0.525701 -0.0020197749 -0.38650712 -0.19990833 0.36777097 0.32000697 -0.26520818 -0.37199008 0.028930997 0.13877371 0.8701881 -0.30264246 -0.32276034 -0.033823203 -0.41987506 0.17129621 0.12502152
1552 -0.08080849 0.54366165 0.12470834 -0.049399786 0.20490752 -0.35361233 0.12504873 -0.720216 -0.1504671 0.3079529 -0.13688578 -0.03945918 0.082245216 -0.13977318 0.41166636 -0.8349703 -0.34906554 -0.4537328 -0.48646215 0.07012954 -0.061265394 0.13031328 0.27846316 -0.14761892 0.498883 0.25153354 0.39345574 -0.29907066 -0.3652057 0.22134122 -0.26602972 -0.16459812
77 -0.32577264 0.2538611 0.025081156 -0.19310685 -0.092704035 0.08355211 -0.3962114 -0.6505407 0.32143643 0.42339408 -0.17895457 0.13211702 0.0941311 -0.17880857 0.7580021 -0.68315816 -0.12674858 -0.10961894 -0.37177032 -0.111544125 0.44178477 -0.11289283 -0.2811266 -0.06592531 0.0034930913 0.278668 0.020472983 -0.113323316 -0.29807612 0.84962386 -0.123401485 -0.08254202
241 0.54894245 0.58667195 0.0367729 -0.61158764 -0.14298932 -0.27671468 -0.24789457 -0.3654402 -0.017356835 0.098394856 -0.32261 0.13350093 0.21435037 -0.3354817 0.85332906 -0.52067894 -0.2236267 0.13245574 0.122222796 -0.15715554 -0.06084779 0.34436795 -0.13010658 0.1760307 0.2564109 -0.19256824 0.5322998 -0.073818825 0.10684389 -0.41118747 -0.1928049 -0.11868391
1272 0.43523228 -0.046291478 0.2203799 0.09326308 0.049981102 -0.3954076 0.006502982 -0.2602041 0.34590623 -0.14912604 0.5806948 0.28466874 -0.33778295 -0.85117424 0.3898429 -0.5096712 -0.23846936 -0.2122474 0.33358943 -0.18922958 0.38247746 0.27029172 0.61637896 0.11016196 -0.39217857 0.22052616 0.58401936 -0.64184463 -0.11155077 0.0766037 0.014214204 -0.3028098
1803 0.17798752 -0.07550189 -0.16178381 -0.03155189 0.38567287 0.095640086 -0.13914293 -0.50459534 -0.11493021 0.4191532 -0.029681299 0.13421446 0.21350718 -0.922588 0.43593386 -0.4446996 0.46298414 0.18723367 -0.24301098 0.08407 0.045835093 -0.19239935 0.118566886 0.13073476 0.16373856 -0.013939729 -0.01629186 -0.46390423 0.11040943 -0.3182286 -0.13107112 0.10619036
1135 0.47307584 0.55801237 0.087873675 -0.07800736 -0.22198124 0.15509623 0.3368655 -0.20803608 0.09262148 0.58183986 -0.21466525 0.16654162 -0.029896328 -0.5821462 0.4145866 -0.6988353 0.024655469 0.25968933 0.14775158 -0.24792837 0.16944782 0.056497097 -0.18696778 0.18790872 0.4285294 -0.10476961 -0.22844036 -0.33658832 0.19275339 -0.40755737 -0.39153168 0.04138594
1479 0.30327985 0.26317352 0.2930402 -0.34916514 -0.22665922 -0.027956108 -0.16873294 0.06638472 0.039258923 0.40670857 -0.29104972 0.2968089 0.115838975 -0.8153828 0.38067797 -0.5154321 -0.45475647 0.33493444 0.0025969567 -0.44565788 0.037867907 0.46258605 -0.22672787 0.13956548 0.5881102 -0.040330563 0.14455071 -0.039392676 0.3380787 -0.2725157 -0.46998724 -0.37800708
748 0.53072953 0.18310215 0.58134604 -0.1084853 0.18458349 -0.38646102 -0.35738763 0.18650751 0.23994271 0.5232869 -0.13087001 0.723367 -0.071029805 -0.39479038 0.4271956 -0.8014434 -0.02882272 0.07598395 0.34004018 -0.5299899 -0.030372467 0.19593498 -0.10858086 0.28302783 -0.09027716 -0.06263627 -0.16354628 -0.14940557 0.111102805 -0.13536505 -0.07837632 -0.4526968
689 0.22568405 0.36852422 -0.018234571 -0.17036733 -0.15503012 -0.3363665 0.037687443 0.14644736 0.4857253 0.5577171 -0.274735 0.26140445 0.19480649 -0.7984959 0.6546973 -0.66330117 0.142649 0.07482879 -0.17457442 -0.38337624 0.20652172 -0.13893256 -0.10219234 -0.10424191 0.107115194 -0.01695171 -0.16974615 0.28892413 0.053074077 0.22053945 -0.044700045 0.22240622
1773 0.5334441 0.3521762 0.33024564 0.12702356 -0.032662526 -0.025875023 -0.17759809 -0.23368353 0.046391435 0.47172743 -0.66294426 0.12836337 0.016156226 -0.45649952 0.54737526 -0.706628 0.20903236 -0.087594055 -0.23670755 -0.13521919 -0.088652596 0.06548615 0.028744157 0.2629971 0.18464921 0.1458987 -0.00400746 -0.33843142 -0.042343512 -0.6212181 -0.39731508 -0.34953016
1059 -0.55807287 -0.33348885 0.15030323 -0.39071923 0.035888825 -0.014581801 0.0077238185 -0.46230462 0.052388083 0.035050843 -0.07604329 0.2250235 -0.086905316 -0.74619675 0.017781643 -0.52968425 0.03941256 -0.28003266 -0.1937267 -0.08579444 0.38765433 -0.17164989 -0.7416847 0.1812942 0.011918187 0.2288618 -0.8088914 -0.3225787 -0.20602605 -0.16223446 -0.19388206 0.026291933
452 0.36043152 -0.06406619 0.046180617 0.2542516 -0.011523811 -0.4015489 -0.1973821 -0.33146054 -0.03505299 -0.011226571 0.55984354 0.36363062 -0.1401338 -0.70055264 0.65906864 -0.3973309 0.19012804 0.09695029 -0.0072091585 -0.24135144 0.22264262 0.4722624 -0.13780545 0.0037840358 -0.37326 0.0839649 0.04834722 -0.47721204 0.28115815 0.2427429 0.35215488 -0.12439215
1037 -0.53640234 0.0746061 -0.12865663 -0.58944684 -0.084623 -0.20518984 -0.07132585 -0.39390245 0.1391825 0.28920108 -0.015212963 0.09048277 0.10771291 -0.5252297 0.29692364 -0.44151193 0.19990216 -0.47992167 -0.33319694 -0.20820992 0.61166227 0.45568445 -0.3324687 -0.2129973 0.0729749 0.02517024 -0.6847718 -0.35403886 -0.44470644 -0.15976918 -0.08389863 -0.101293005
387 -0.18007404 -0.6122973 0.29975402 -0.6085557 0.32179904 -0.06418951 0.14235306 -0.21099664 0.23170999 -0.32541713 0.21705635 0.068782 0.033403266 -0.7682182 0.16622452 -0.7617004 -0.23906335 -0.03178435 0.2103118 0.039387073 -0.104401976 -0.5539072 -0.6019853 -0.1824655 0.3271915 0.7561019 0.03738451 -0.23638077 0.28259844 -0.6745863 0.031263728 0.37658682
9 -0.12044508 0.35823208 -0.18552504 -0.67991513 0.114964165 -0.33490178 -0.23647648 -0.12332337 0.076077655 0.41255784 -0.084978 0.4401991 0.05275141 -0.34692752 0.37868023 -0.387853 0.17344645 -0.15969275 -0.18484753 -0.54080015 0.18112221 0.21857998 -0.39842227 -0.37689176 0.25472546 0.00049268815 -0.42183486 -0.41277772 -0.43599722 -0.32321247 -0.43535894 -0.19376397
1756 0.49183902 -0.24645567 0.25889474 0.21850988 0.44595197 -0.315783 -0.08361718 -0.4722868 0.2688202 0.07538072 0.2225685 0.23188095 -0.02786541 -0.8519264 0.094745025 -0.65705156 0.057493895 -0.3068635 -0.12776197 -0.05633464 0.36819655 0.321209 0.3428787 0.15449473 0.0018305117 0.028750136 0.43236312 -0.4252371 -0.050734635 0.45671162 -0.05944599 -0.07953112
471 0.75066876 0.055744637 0.025398513 -0.25502393 0.37839314 -0.061925326 -0.109852076 -0.6955301 0.09992942 0.4122046 -0.11061808 0.49954033 -0.2965686 -0.51501596 0.40960646 -0.39035773 -0.29778022 0.20035794 -0.04212127 -0.051342886 0.14023747 -0.03061998 0.18186103 0.101415284 0.19133168 0.28499794 0.33649236 0.00818846 0.0030165624 -0.28919438 -0.2712178 0.14396146
731 -0.023886893 0.52912337 -0.22142473 -0.06490433 0.042920776 -0.45702434 0.087391965 -0.6243766 -0.43180066 0.4463769 -0.103082575 0.05505511 0.06350048 -0.57203645 0.543967 -0.55029213 -0.017912503 0.4995566 -0.08244788 0.0036968892 -0.12136793 0.0018360935 -0.2453479 -0.28320247 0.24864522 0.16983585 0.10032069 -0.39702746 0.21340922 -0.055375367 0.20697191 -0.02884531
1748 0.18761554 0.23194097 -0.2729637 0.13144912 0.545113 -0.32249582 0.43656617 -0.6774392 -0.11642257 0.10112694 0.37699106 -0.08167773 0.08767948 -0.6631864 0.45687634 -0.4985931 0.0012852371 0.09237585 0.061957795 -0.15286373 0.22783959 -0.06767427 -0.02185369 -0.028258396 0.42577797 -0.17821793 0.19747832 -0.31346217 0.515716 -0.14438051 0.007402076 -0.0130125135
1791 0.47996366 -0.0024150473 -0.24079157 -0.57701457 -0.6706279 -0.13820773 0.18064573 -0.32202116 0.24741441 0.3578383 0.5015046 0.33803037 -0.15265687 -0.4137943 0.4004221 -0.46305785 0.048707064 0.008705185 -0.31788725 -0.5037595 0.06958419 0.4053674 -0.178228 0.4518756 0.11221214 -0.025846973 0.5236259 -0.30953157 0.60189265 0.05909843 0.13637185 -0.13575324
650 -0.36832106 -0.4885093 0.32421356 -0.5882423 0.036480367 -0.2619264 0.10028205 -0.20123847 0.21493292 -0.22767547 0.19931999 0.19320874 0.11267512 -0.67532074 0.054038018 -0.66640675 -0.39452517 -0.39188194 0.15477976 0.20180479 -0.025898455 -0.35620505 -0.7772502 0.1582556 0.20398329 0.4801983 -0.13371599 -0.52636504 0.08325293 -0.40508914 0.2330706 0.30308807
165 -0.08399165 0.18605016 -0.42068806 0.10370674 -0.64917135 0.027709708 0.2573147 -0.31503165 -0.054376688 -0.056165572 -0.043019008 0.45014372 0.28369904 -1.0760179 0.33079308 -0.6001631 0.26219103 -0.3032676 0.32060733 0.324915 0.15014753 -0.20492078 -0.1963071 -0.08099615 0.38318843 0.19151841 -0.3950291 -0.18127929 0.15607946 -0.52516055 0.08347125 -0.09114211
1110 -0.15136045 0.22362831 -0.0054331855 -0.43732706 0.35625532 -0.36514434 0.33668366 -0.41368663 0.52097994 0.30241507 0.057408147 0.4245416 0.2622863 -0.35413978 0.33580962 -0.3926755 0.66837066 -0.39551878 -0.001909242 -0.5460357 -0.14457996 0.2510113 0.06850211 -0.31452295 0.48893583 -0.13763715 0.074042454 -0.4610171 -0.32969177 -0.009141554 -0.26623973 -0.14050184
1137 -0.39951903 0.46618378 -0.049406886 -0.5033957 0.19120803 -0.20373128 0.12479698 -0.43728113 0.23748057 0.4493903 0.38481128 0.259952 0.07361588 -0.069741376 0.4203028 -0.4331007 0.4406274 -0.49981767 -0.0012700016 -0.48824552 0.27411658 0.49748468 -0.2975562 -0.40995556 0.25146753 -0.076869994 -0.103427045 -0.4622483 -0.5358564 -0.17916182 -0.20329571 -0.29113823
1022 0.5852781 -0.00445068 -0.2023341 0.003541582 0.64378107 -0.33922154 0.16057803 -0.7932924 0.19006212 0.20881614 0.2905317 0.22769223 -0.16179681 -0.2786917 0.26175326 -0.80787736 -0.09324266 0.2881813 0.14566535 0.10904923 0.22437271 0.32275224 0.26242143 -0.07720647 0.25730067 0.053454712 0.22729866 -0.3337372 -0.40205744 0.09294098 0.014678919 -0.124280356
626 0.40085605 0.3995279 -0.23350582 -0.3876043 0.010867657 -0.028332254 -0.15045772 -0.43454665 -0.06577221 0.54572254 0.13998953 0.50767946 0.17873874 -0.4102248 0.6347214 -0.4208613 -0.26827383 0.22912492 0.19039494 -0.35395098 0.07058689 0.19579034 -0.21030061 0.03282205 0.16061519 0.081986785 -0.17220652 0.15991633 -0.025983417 -0.44459003 -0.4224003 -0.14963694
618 -0.157578 0.084001526 0.10554172 -0.064571746 0.15898359 0.5187348 0.02170125 -0.7845042 0.21524672 0.13553375 0.40184307 0.25068387 0.055077802 -0.2884449 0.74465525 -0.67977077 -0.55509806 -0.58583754 -0.595317 -0.35707256 0.079055935 -0.238429 -0.36429042 -0.4037994 -0.12011301 0.15190706 0.30826956 -0.010075845 -0.06006595 0.739479 -0.089762315 -0.1896555
86 -0.11693484 0.20940962 -0.37960508 0.09376591 -0.22687612 -0.25514874 -0.08057587 -0.5179818 -0.3711039 0.29067853 -0.08584002 0.0026721826 0.07824789 -0.8943083 0.31498277 -0.5316647 0.19203976 -0.19131258 -0.21887392 0.18683083 0.09532483 0.009881162 -0.1382588 -0.4052017 0.27166113 0.29760644 -0.25685307 -0.28545764 0.31752202 -0.08432616 0.2095237 0.052842338
1631 0.3182061 0.003499833 -0.1351341 -0.14957893 0.0691721 -0.37280378 0.108749844 -0.46068382 -0.100794695 0.4336438 0.42419174 0.32215297 0.05275633 -0.57887274 0.12049517 -0.41359285 0.35365865 0.07232981 -0.29507533 -0.05343997 0.65200424 0.1717192 -0.370331 -0.27714893 -0.17787267 -0.0641274 0.02681638 -0.54428697 0.11280154 0.17206721 0.3496896 -0.04504251
333 0.242514 0.12857391 0.19996914 0.17483516 -0.27231866 -0.1483138 0.24440162 -0.31509018 0.24060291 0.5091288 -0.33317006 0.07456436 0.13450232 -0.5252518 0.5732596 -0.7730068 0.8458505 -0.055482034 0.42831352 0.048313875 0.27043808 -0.30705097 -0.2664568 0.058400143 0.3019025 -0.107721865 -0.07539889 0.028012697 0.023471465 -0.40453166 -0.13944387 -0.6154056
1129 -0.21789838 0.19252795 -0.47270718 -0.27121148 -0.057060722 -0.022880588 -0.13551587 -0.29036096 0.674817 0.4281082 0.060708415 -0.38899934 -0.43147632 -0.5898186 0.5098584 -0.47465432 -0.25616747 0.06719365 -0.6102147 -0.021817371 -0.17475864 -0.19261058 -0.60963625 -0.22849204 -0.011795768 -0.00079938705 0.15744095 -0.2992227 -0.13747665 0.4679321 -0.40596524 -0.73836935
1475 -0.597186 0.05226612 0.047224015 -0.5254886 -0.045748245 0.094808824 -0.054787807 -0.7063587 -0.058167215 0.25818497 -0.07288064 0.17473143 0.12465581 -0.6676526 0.22971506 -0.4304566 -0.17809178 -0.5157373 -0.3729657 0.05359959 0.44169182 0.029082743 -0.3314221 -0.028204134 -0.12678665 0.12817733 -0.73066187 -0.28041023 -0.26663163 0.07637709 -0.12049563 -0.22878148
668 0.35288152 0.12984303 0.15771665 -0.15033494 0.44058883 -0.68142784 -0.104185045 -0.40659922 0.38851234 0.16488422 0.3614584 0.2024254 0.10512696 -0.6779753 0.19082266 -0.58620185 0.025548767 -0.10714874 -0.11595164 0.018568102 0.20211086 0.07277388 0.6173807 0.15924236 0.40706578 -0.08726626 0.7369808 -0.4062361 0.03022568 0.06307023 -0.0633839 -0.33737314
436 0.2704281 0.4805378 -0.22506493 -0.25458002 -0.32501432 -0.047019903 0.16944273 -0.103609584 0.19837779 0.3209999 -0.34339657 0.439362 0.33636108 -0.7621733 0.26993555 -0.64424455 0.17649572 -0.13322657 -0.16869624 -0.28080484 -0.054003365 0.122357905 -0.26029187 0.21179482 -0.008665558 -0.023597324 -0.2941706 -0.2835345 -0.050587643 -0.1928142 -0.0072058053 -0.38893393
564 0.11506818 0.45025772 -0.1445502 -0.32507774 0.111131325 -0.275699 -0.7032796 -0.063992955 0.17384617 0.6904349 0.14498356 0.27526152 0.15738839 -0.08866803 0.74349904 -0.65801924 -0.4394259 -0.17077658 -0.2656311 -0.33150882 -0.22647576 0.06922691 -0.2855182 0.090132006 0.0730353 0.027255557 0.058039416 -0.21460763 -0.44322142 0.051487885 -0.60294294 -0.33425134
1425 0.18252108 0.19653867 -0.13785091 -0.3857007 -0.30662018 -0.31755686 -0.08938525 -0.35934797 0.183689 0.340847 -0.003568998 -0.021364067 -0.068559095 -0.53946084 0.41087425 -0.59099424 0.4086693 -0.13764569 -0.20702043 -0.3740079 0.20294431 0.25313914 -0.51716316 -0.2801099 0.1583867 0.100434445 -0.67221975 -0.03136423 -0.3040142 0.013626437 0.34454975 0.17564315
1398 0.4552093 0.42977083 0.07818421 0.08302938 -0.4319649 -0.30513462 0.063351445 0.09212384 0.007314323 0.19871259 0.06505658 0.3341423 -0.24658157 -0.67661333 0.43367845 -0.9719312 0.2635677 -0.008570394 -0.23539533 -0.50934833 0.05896565 0.066235505 -0.33372128 0.12772429 0.14830731 0.24280597 -0.38673764 0.18328506 -0.26035583 -0.14698204 -0.1724386 0.20921637
657 -0.13934512 0.028574808 -0.40404627 -0.022414839 0.0048469473 -0.28696623 0.29514122 -0.6105818 -0.5136512 0.092376165 0.07727043 -0.15252705 0.29841566 -0.94104785 0.40611652 -0.508722 0.106778435 -0.095420755 -0.03725291 -0.20744698 0.11357771 -0.29689834 -0.17879118 -0.18334031 0.17551763 0.14846657 -0.08303766 -0.19069652 0.21868923 -0.18934241 0.5367039 -0.27594814
545 0.5488532 0.26110554 -0.20563413 -0.05029358 -0.0059340713 -0.10552143 -0.23800248 -0.54448456 -0.2941062 0.25730053 -0.08091744 -0.32386705 -0.01033313 -0.3837056 0.44854856 -0.6044488 0.4537888 0.11449095 -0.13408948 0.15133156 -0.007404591 0.004488754 -0.32025722 -0.030820617 0.15004618 0.2705674 0.02128564 -0.90918624 0.46494985 -0.24862939 -0.07383922 -0.19620697
1243 0.09627878 0.41040632 0.08569298 0.12169475 0.39292884 -0.65353024 0.27339816 -0.5579119 -0.29130602 -0.04919776 0.09443575 0.003169903 -0.07498757 -0.1769815 0.4807436 -0.78518635 -0.25106972 0.30983782 -0.3431969 0.0020748544 0.15633592 0.20324177 -0.50307435 0.11087539 0.2153845 0.3038264 -0.035356898 -0.28914845 -0.39826983 -0.075877525 0.42198434 -0.11052357
1646 0.10822986 0.6643481 0.0017760067 -0.24101377 0.25756705 -0.3370521 0.21891387 -0.5182581 -0.51918894 0.2275216 -0.24337189 0.1710584 0.14217265 -0.39690498 0.25528184 -0.83959323 -0.115955405 0.19403318 -0.1443281 -0.0015636275 -0.10668346 -0.12274351 -0.11906429 -0.1628162 0.0075651323 0.06417397 0.31651294 -0.6824816 -0.003296926 -0.013898902 0.038240068 0.19457686
1249 0.03764274 0.040539846 0.15807252 -0.0438085 0.59142077 -0.5192873 -0.03665974 -0.53515494 0.7415821 0.012390124 -0.018186906 0.24805893 -0.07586553 -0.6801373 0.027431378 -0.65800977 -0.088523984 0.0418137 0.20755598 -0.14616767 0.37247783 0.15890686 0.6075022 0.31798849 0.17791739 0.24987954 0.686366 -0.0862586 0.23513205 -0.030406551 -0.039415855 -0.15834622
29 0.83263737 0.3696044 0.08857715 -0.1114531 0.08917657 -0.01302917 -0.14459033 -0.455296 0.0009894066 0.5883965 -0.2481517 0.3381106 0.07817966 -0.3176202 0.47475836 -0.6445765 -0.45262522 0.19311006 0.08321385 -0.2767483 0.092536874 0.30227908 -0.1562071 0.10334994 0.5243505 0.28315547 -0.14554287 0.030292815 0.1445156 -0.18777734 -0.26746178 -0.33170712
245 0.6141377 0.046855573 -0.02452026 -0.15984909 0.1829308 0.25502133 -0.014562532 -0.68197936 -0.08934185 0.8714342 0.0348306 0.063829534 0.027588954 -0.41401178 0.61341417 -0.5653461 0.20697805 0.35041106 -0.34976038 -0.15941781 -0.06771882 -0.06470787 0.21903232 -0.366803 -0.08785101 0.22886561 0.051949773 -0.18544933 0.1340861 -0.34082267 -0.13398094 0.17952655
1591 -0.4832231 0.05221373 -0.006096721 -0.12737012 -0.42857012 -0.20104873 -0.36756593 -0.70681274 -0.017271813 0.2414908 -0.121944815 -0.10167295 -0.057697058 -0.7449824 0.36921376 -0.45938998 0.0909961 -0.51154023 -0.3325234 0.27828196 0.53184795 0.11922136 -0.19102244 0.23493476 -0.16383947 0.12860359 -0.6976907 -0.25472054 -0.093073905 -0.27630374 -0.19773468 -0.07677139
309 0.26586244 0.42915353 0.07288585 -0.05306056 0.35910675 -0.65369225 0.026111498 -0.59499896 -0.04745612 0.21413071 -0.19758926 -0.17917885 -0.047832653 -0.32259986 0.37629384 -0.6243826 -0.25946987 0.18080644 0.20102806 -0.4397511 0.016387673 0.23238961 -0.0795147 0.11477691 0.5434538 -0.09518458 0.26356933 -0.3349859 0.42993385 -0.1364984 -0.45174444 -0.0020572396
26 0.26299626 0.10479117 -0.16955942 0.0238372 0.17315587 -0.40060073 0.21869706 -0.7255973 0.0075435094 0.41169456 0.22086613 0.124923706 -0.13330905 -0.5231577 0.13187382 -0.6956929 -0.05062639 0.084893346 -0.30716807 -0.22374004 0.2954355 0.121682405 0.14651708 0.06793793 0.1309316 -0.02656464 0.75916845 -0.118293196 0.37077326 -0.09651677 -0.04768481 0.065890506
579 0.73732233 0.38893217 0.1409637 -0.43904093 0.27073118 -0.0029072065 -0.36609194 -0.62495494 -0.18746695 0.5285902 0.019145088 0.07998409 -0.16844533 -0.16245466 0.64251286 -0.6540797 -0.41771287 0.028616218 -0.031743918 0.040883787 -0.020574048 0.0662025 0.24399665 -0.06942567 0.2827048 0.033081677 0.27543288 -0.12363173 0.021961289 -0.34805235 -0.027922915 -0.2832262
1461 0.1683068 0.17317033 -0.31684545 -0.12681207 0.011362414 -0.09573014 -0.065380804 -0.6587927 0.77606595 0.33410564 0.21873477 0.06047313 0.19330977 -0.49571064 0.0034042029 -0.43143743 -0.18453383 -0.15098198 -0.06004215 -0.48630142 0.6081901 -0.11011479 0.2599829 -0.060331088 -0.3660511 0.40138406 0.87548023 -0.06790768 0.35223627 -0.23937857 0.52867675 -0.02346562
35 -0.1112465 0.20898178 -0.2742803 -0.040841978 -0.2648946 -0.030073194 -0.24306792 -0.4392741 -0.27083236 0.047566142 -0.12440195 0.49146587 0.2212437 -0.6952236 0.44767347 -0.6325427 0.3346453 -0.12700674 0.015228343 0.124794915 0.189501 -0.13429399 -0.19494386 -0.109382026 0.2296481 0.048862003 -0.3743433 -0.53900874 0.19844337 -0.14768209 0.46810085 -0.16328625
1095 -0.0853149 0.47395232 -0.2353545 -0.092199996 -0.106975004 0.11024612 0.06461847 -0.34748393 0.0022144688 0.11040889 0.22139847 0.50987756 0.31588647 -0.5391113 0.21909542 -0.74976087 0.3601253 0.04576037 0.13575163 -0.01416743 0.3070789 0.009657567 -0.47328904 0.22539312 0.3416081 0.055954944 -0.5073074 -0.3010522 -0.3744064 -0.48481545 -0.02343193 -0.20876487
1094 -0.28376493 0.29564556 -0.0032787349 -0.25983465 0.0647068 -0.016710075 -0.11854672 -0.4755973 -0.01209281 0.16248037 -0.15683945 -0.25188622 0.03478994 -0.63320434 0.5171012 -0.2853944 -0.01498367 -0.26340395 -0.25956917 0.12528154 0.5230499 0.25323036 -0.3328824 0.42698026 -0.25876066 0.23460987 -0.65887755 -0.53206897 0.29716006 -0.4026528 -0.3447271 -0.14689289
110 0.25193447 -0.24998888 0.4014057 -0.46193224 0.04221203 -0.35153618 0.06089336 -0.29858696 0.28739274 0.7527431 0.19288103 0.10828971 -0.09480785 -0.7965338 -0.25651348 -0.44953272 -0.037570618 -0.32781455 0.17824785 0.11414966 0.25312072 0.34820727 -0.527033 0.19849417 -0.23267257 0.0022250502 -0.31822723 -0.20943637 -0.3271339 0.1167031 0.51970315 0.17876683
167 0.30772975 0.014267548 -0.25710025 -0.15928073 -0.28747582 -0.33044657 0.09901062 -0.38476714 0.7388151 0.08757514 -0.010137055 0.36005035 0.24977367 -0.34675318 0.2916574 -0.60057765 0.22839421 0.09820248 -0.24957362 -0.10889962 0.25216767 0.40439788 0.05903468 0.074929126 -0.42582297 0.65979624 0.42543784 -0.061815057 0.66203666 -0.08583014 0.14396591 -0.14924712
663 0.7517923 0.28274047 0.18070456 -0.16709164 -0.2020503 -0.4419704 -0.29173028 -0.24320906 0.14291061 0.47866645 -0.11593391 0.21194479 0.14788155 -0.4509346 0.23229444 -0.8343835 -0.5416675 0.20862138 0.5685981 -0.55531836 -0.2879329 0.25509 -0.1550123 -0.26571032 0.3282375 0.027121574 -0.019247733 0.105442785 0.07775773 -0.27305105 -0.36869377 -0.5683606
1572 0.39462635 0.36026043 -0.029065974 0.08822613 0.11131127 -0.09423355 -0.41361138 -0.0875198 0.091483764 0.044467404 0.47875363 0.046797726 -0.28605765 -0.8061627 0.54308033 -0.5861167 0.4205899 -0.33938676 -0.19747141 -0.24030852 0.07715345 0.60025746 -0.40868723 0.38689452 -0.015180687 0.3194956 0.073133305 -0.005574783 -0.120492585 0.28367287 0.19250797 0.0104747
1428 0.2775666 -0.2188153 -0.073225394 -0.091057636 -0.056358818 -0.13021909 -0.17572494 -0.53211904 0.0747066 0.12295672 -0.04904592 -0.040878702 0.024854641 -0.91659343 0.44271934 -0.7357782 0.26759088 0.11007979 -0.46210897 0.012219174 0.11186426 0.02203036 -0.15689759 0.09286298 0.015481072 -0.43399656 -0.36241755 -0.036798485 0.08864654 -0.22041509 -0.12919277 0.32723954
1619 0.19196886 0.23770428 -0.01054685 -0.24790731 0.087823465 -0.35317937 -0.043101527 -0.6386278 -0.23840328 0.30807889 0.37867132 0.075403206 -0.5050597 -0.20351139 0.03585817 -0.8700895 -0.10452238 -0.19273038 -0.21364862 -0.3977386 0.36299857 0.17683552 0.03034298 0.0699783 0.25089663 0.16701676 1.0204856 -0.1190765 0.23463371 -0.21533625 -0.051005505 -0.12478679
1555 0.41059616 0.4034462 0.13366711 -0.28140393 0.13092571 0.2058198 -0.25731826 -0.048796482 -0.079414 0.84612453 -0.3130533 0.3774668 -0.120729685 -0.5528647 0.59754235 -0.74919695 -0.25145364 0.17075288 -0.4551302 -0.27695245 -0.04235388 -0.15399927 0.21676703 -0.050363846 0.1592993 -0.020947048 -0.16933328 -0.22338872 -0.11344209 -0.18968283 -0.20182943 -0.045964237
1357 0.32359675 -0.39555743 0.0775966 -0.13448714 0.07581339 -0.39940286 -0.0043271654 -0.63581485 0.49733844 0.74481595 0.42741522 0.316065 -0.07545271 -0.4287401 -0.17407961 -0.25159323 0.19493511 -0.47136578 -0.2772967 0.117401004 0.48551506 0.63913524 -0.43935362 -0.03964509 -0.2749013 0.27745026 0.36650133 -0.3236643 0.13420099 0.23127986 -0.03618267 -0.27705896
1257 -0.1262602 -0.49064076 0.18204942 -0.5706082 0.47927386 -0.009337091 0.07816756 -0.14877497 0.6444709 -0.37131986 -0.05759031 0.053468242 -0.2412146 -0.81795835 0.0025382312 -0.6709873 -0.48930007 0.047879066 0.27648082 -0.107369855 -0.14085099 -0.5888986 -0.51588947 0.05966524 0.10295213 0.6238304 -0.24954201 -0.28978038 0.28375813 -0.75918454 0.030134162 -0.19056751
482 -0.4959547 0.14801745 -0.07303606 -0.6882305 0.2824248 -0.13038114 -0.1686942 -0.42792466 0.31383154 0.34198698 -0.15597051 0.3085992 -0.07485623 -0.4849372 0.1728733 -0.62572724 0.34828535 -0.29105064 -0.07359694 -0.43024772 0.5891576 0.13177906 -0.2046897 -0.05131839 0.10686528 -0.21702936 -0.7467695 -0.25753266 -0.39663744 -0.061729416 -0.20364247 0.10426441
717 -0.051489554 0.2717555 -0.42887944 -0.101191714 -0.0027237588 -0.14813967 0.25559923 -0.7049342 -0.646259 0.45745078 -0.05841865 -0.003711882 0.095937535 -0.8198585 0.48490494 -0.6234299 0.09224275 0.09000048 -0.13052127 0.37369204 -0.1756071 0.06252475 0.039465282 -0.3426141 -0.048556067 0.19708323 -0.3532985 -0.61277837 0.4755199 -0.13511065 0.17590347 -0.0556743
1477 0.3473626 0.78478426 0.08014434 -0.3542828 -0.11803307 -0.2914868 -0.16850917 -0.38087296 -0.3396201 0.5825954 -0.22336659 0.059045866 0.54788136 -0.35379186 0.13750464 -0.82913685 -0.007088996 0.13166656 -0.194346 -0.09280414 -0.2614021 0.048960555 -0.32014716 0.07936654 0.24057698 0.026032483 0.13109036 -0.53159523 0.03894038 -0.26646605 0.018786026 -0.32793766
1648 -0.09239894 0.018313 -0.0058574104 -0.23151182 -0.05429977 -0.016277356 -0.1797804 -0.61187166 -0.24750236 0.22957425 -0.1286115 0.03292719 0.1712861 -0.7933442 0.22499198 -0.5934153 0.42025214 -0.27795324 -0.2873804 -0.09760527 0.041768193 0.1429623 -0.15967879 0.067186415 -0.06845194 -0.20500903 -0.6331576 -0.41868243 0.27786702 -0.4548685 0.083591305 -0.47064573
137 -0.18748023 0.624545 -0.14890577 -0.31161872 0.1351055 0.5435802 0.30079734 -0.5758595 0.29811206 0.15019155 0.14367692 0.31565568 0.3259865 -0.39744768 0.6995213 -0.5155025 0.27632394 -0.0002025733 -0.13622734 0.05754398 0.3100742 0.15034047 -0.4326003 0.25355518 0.21846247 0.16138248 -0.39101937 0.029979499 -0.46497148 -0.4439429 0.18092231 -0.26448214
479 0.088733755 0.19081667 -0.22197492 -0.18373981 -0.4024415 -0.31989533 -0.111832574 -0.08239318 0.31010658 0.33679444 -0.10272668 -0.04152379 -0.17219797 -0.51297873 0.66969186 -0.9381881 0.05187683 -0.21160662 -0.68138695 -0.15627697 0.19928615 0.033843834 -0.049221285 0.246966 0.055144183 0.14610046 -0.47560245 0.14141668 -0.19161005 0.21274471 0.21664713 0.1277915
473 0.40052173 0.15560259 0.0106568355 0.09198868 0.5421215 -0.007527938 -0.11207717 -0.5238288 -0.20023492 0.60274565 0.36773112 0.38507077 -0.43812 -0.43245426 0.52670246 -0.6214427 0.030597333 0.07536002 -0.21721327 0.058611885 0.041490722 0.009803365 0.3465773 0.1067216 0.28150198 0.24894865 0.47930533 -0.20479915 -0.049555294 -0.38917875 -0.03526168 0.07640122
301 -0.1924513 0.24544397 -0.29675573 -0.8150914 -0.17980582 -0.5824032 0.058894116 -0.19485928 0.39832824 0.37313294 -0.15071028 0.24514039 0.012066068 -0.15954897 0.4976057 -0.71232134 0.5135394 -0.67783797 -0.308294 -0.6764236 0.33419353 0.32498056 -0.04215165 -0.71339494 0.1823583 0.06841836 -0.34900767 -0.2142514 -0.64188594 -0.22736251 -0.39609206 0.06487415
1661 -0.30734846 0.34187627 -0.054693405 -0.97171 0.399557 -0.32157108 -0.25130525 -0.37804937 0.1329153 0.3491177 0.1705716 0.45492548 -0.20945662 -0.17096478 0.44149783 -0.55932796 0.0887608 -0.37904146 -0.08572396 -0.58206147 0.17906345 0.35983306 0.080030635 -0.8699457 0.5061246 -0.080017455 0.02755388 -0.22489119 -0.50938827 -0.07454934 -0.3927141 -0.24695645
45 0.32426092 0.5679341 -0.18119916 -0.41145715 -0.27274185 -0.5428774 -0.0997187 -0.35474858 0.027295936 0.23425198 -0.24870475 -0.040036693 0.29554984 -0.37121335 0.6812141 -0.74402934 0.1931411 -0.3001945 -0.2781278 -0.27012137 -0.02815931 -0.06660276 -0.19036855 -0.029022811 -0.051928073 0.058700614 -0.4010558 0.020031335 -0.25916758 -0.023514364 0.08376109 0.12852259
1622 0.52475363 0.35362008 0.13983136 -0.31950173 -0.11143855 -0.23061015 -0.18006295 -0.07445683 0.115211345 0.545248 -0.01321914 0.42549276 0.20754476 -0.47599393 0.6102978 -0.51052195 -0.5712174 0.16194257 0.11464804 -0.6173113 -0.14775826 0.45575914 -0.17694147 -0.18561186 0.38334918 0.31539008 -0.071048886 0.3314765 0.049990047 -0.21137127 -0.2852755 -0.6504846
1603 0.19627787 -0.2814089 -0.21430007 0.1388972 0.46002823 -0.3347463 0.011660004 -0.7177684 -0.11771745 0.17361589 0.2848185 -0.05945034 0.21307294 -0.35568383 0.39473578 -0.72182935 0.3923739 0.26732126 -0.27712846 -0.41003785 -0.024953976 0.10136352 0.19484992 0.055316325 0.39051294 0.10004633 0.096099086 -0.5069862 -0.093725644 -0.31076714 0.08020405 0.11567263
681 -0.14709975 0.2725506 -0.033040885 -0.32106626 0.55833393 -0.43676955 0.09036584 -0.53716874 0.10084372 0.2303746 0.04501307 0.29278496 -0.12194636 -0.20469281 0.46117926 -0.72520846 0.09972601 -0.008015642 -0.13981014 -0.1980614 0.14387964 0.102175884 0.33733198 -0.13701369 0.5510442 -0.17093979 0.5615973 -0.4477357 0.092756145 0.13178399 -0.054654486 0.29737198
273 0.1606141 0.26585847 0.07649436 0.061513513 0.28274575 -0.41140038 0.3972275 -0.49244967 -0.34335062 0.2174777 -0.129043 -0.09386771 0.12323609 -0.4954735 0.21270083 -0.699169 -0.32404822 0.2591141 -0.083961375 0.084812455 0.011212575 -0.040461354 -0.5013957 -0.26824236 0.46184933 0.1275535 -0.00036161448 -0.4102736 0.046399448 -0.23888208 0.36825863 -0.1673963
1557 -0.034665126 0.22974324 0.03103888 -0.004939684 -0.30954188 -0.20662108 0.14722943 -0.23303702 0.25390264 0.10474654 0.17740153 -0.14752996 -0.009172447 -0.47991756 1.0543054 -0.56363225 0.15145479 -0.19102834 -0.31887594 -0.36843625 0.1941547 -0.01434608 -0.39084148 0.14267911 -0.0022813866 0.13735597 -0.22238539 0.073512934 -0.2541144 0.3289474 0.20455557 0.066715
334 -0.12333142 -0.4834246 -0.16644782 -0.25605997 0.19141784 -0.21631175 -0.06241555 -0.1448664 -0.10695344 -0.26667407 0.027626174 0.027257523 0.14739007 -0.75867844 0.30832672 -0.6095117 -0.11928457 -0.23196723 0.10905205 -0.0069083376 -0.08030641 -0.6906244 -0.7205746 0.2337329 0.19474392 0.60695267 -0.15254205 -0.8199001 0.33329946 -0.40756458 0.063916296 0.1894253
555 -0.34384382 -0.039221328 0.36822486 -0.5099705 0.098965086 0.06306593 0.24507795 -0.54436857 0.08147355 0.32046857 0.23631746 0.33638978 0.21206045 -0.6951051 0.15365958 -0.33730698 -0.004369267 -0.47152707 -0.2730373 0.25449112 0.580345 0.25112543 -0.48386672 0.27640852 -0.112956546 -0.018706733 -0.5678569 -0.27210447 -0.21649949 -0.03971676 0.16657153 -0.37047535
809 -0.3332204 -0.17832421 0.18630955 0.36354673 -0.21845388 -0.3082499 0.12988499 -0.5492252 -0.2656978 0.38095677 0.022709921 -0.13567366 0.13870877 -0.28858048 0.6791771 -0.60828495 0.061126344 0.45514083 -0.29702103 -0.15620388 0.13173391 0.31527892 -0.22553675 -0.10233772 0.17850421 0.48558685 0.07683054 -0.6988258 0.009335169 -0.0271408 0.118417084 0.06673536
1283 -0.28664634 0.6104781 -0.03833378 0.015132174 0.07395548 -0.2069344 0.25257352 -0.6665974 -0.3246114 -0.07155949 0.291924 -0.08291604 0.35305253 -0.6643363 0.2753673 -0.553143 0.23244612 0.08171005 -0.062439326 -0.15379795 0.13287264 0.06147161 -0.50151724 0.10579002 0.23117779 0.043534707 -0.20294474 -0.46177402 -0.40796292 -0.37901822 0.33731824 -0.29750022
1223 0.58295536 0.49270496 -0.19278555 -0.24310915 -0.18726882 -0.16555727 -0.016944947 -0.2865292 0.25066632 0.6819614 -0.17917493 0.45704547 0.06518653 -0.61836827 0.35214186 -0.6878183 -0.23126967 -0.089439355 0.2684819 0.013986927 -0.14718713 0.45008177 -0.6541022 0.11131883 0.044702936 -0.35295486 -0.0539709 0.14130987 -0.17957874 -0.306589 -0.5589909 0.19162276
1106 0.16914633 0.29076418 -0.27248886 -0.11626572 -0.31904885 -0.008809803 0.2289165 -0.15177754 0.022306858 0.26887947 -0.45928255 0.2863647 0.37928805 -0.61432934 0.36383757 -0.64240533 0.38482496 -0.10547552 -0.03687652 -0.04248308 -0.1306087 0.23983157 -0.30802327 -0.03323431 0.29760757 0.03753592 -0.16780679 -0.58354944 0.027414242 -0.61230785 -0.1020654 -0.27078283
1043 -0.11861644 -0.02641101 -0.550283 -0.0036863422 -0.15621977 -0.0873424 -0.27209398 -0.63546234 -0.51242304 -0.0007176292 -0.38407958 0.32827812 0.015300832 -0.82995623 0.39620286 -0.70060205 0.060288794 -0.15956251 -0.11564045 0.3168151 0.22040185 -0.045206454 -0.39756855 -0.050031506 0.12645312 0.1591629 -0.36449367 -0.32281554 0.16756354 -0.2716446 0.36652693 -0.103925794
335 0.17762879 0.29282317 -0.203065 0.06745295 -0.048649944 -0.49373057 0.099706315 -0.48664215 -0.17172064 0.2661187 -0.29043198 -0.19777419 0.2013887 -0.6843724 0.83490777 -0.52481455 0.4641025 0.032380044 -0.06406978 0.2648135 0.097886205 -0.16832034 -0.4572211 -0.17311488 -0.032002814 -0.020938205 -0.033768274 -0.19223474 0.11883974 -0.14171143 0.23072518 -0.046724238
975 -0.5571844 -0.05938803 0.035015393 -0.3707987 0.1225036 0.035550818 -0.2682552 -0.64380425 0.21841162 -0.016164768 -0.18320358 -0.26976553 -0.24580589 -0.8168726 0.06455116 -0.6359736 -0.013291404 -0.20361838 -0.08992417 0.10151836 0.12258993 0.22797075 -0.59864396 0.20273933 -0.15720943 -0.18224616 -0.50756013 -0.12582871 0.27622736 -0.3867226 0.38008735 -0.29596916
1258 0.5581757 0.48891804 0.4571557 -0.038366262 -0.10813048 -0.1891111 0.18274796 -0.039892726 0.22869633 0.4414403 -0.15483008 0.47754255 0.10007681 -0.46334437 0.25620154 -0.8054652 -0.00856681 -0.24343595 -0.15351161 -0.183978 -0.42641553 0.3857988 0.008344606 0.4243339 0.31475326 0.37054694 -0.0434062 -0.16892204 -0.02137776 -0.15450518 0.07477274 -0.6017818
715 0.25594205 0.4530438 -0.19910112 0.015950926 -0.1253268 -0.38245752 0.12301917 -0.73055196 -0.14239874 0.27053466 -0.18234934 -0.17327699 -0.0473832 -0.2336833 0.66199076 -0.4103364 -0.07055192 0.4203988 0.1591619 -0.18406147 0.27614707 0.06839543 -0.4056442 0.012608417 0.3261504 0.3319792 0.036916282 -0.56672466 0.47856846 -0.03103876 -0.20058978 0.07719103
1647 0.48657808 0.24853341 -0.4522202 0.10657619 -0.22913274 -0.48409703 0.08136644 -0.28664526 -0.036636204 0.14092307 -0.38574842 0.08428676 0.37099233 -0.4940501 0.545806 -0.9672124 0.2012307 -0.15434456 -0.08840113 -0.2671186 0.03988898 0.13595323 -0.31988046 0.0015851873 0.08780746 -0.008006076 -0.14968279 -0.036213607 -0.060811747 -0.1552151 0.17862388 0.08258865
1673 0.6751694 0.30640244 0.10754052 -0.2223038 0.13290782 -0.10072155 -0.09465199 -0.19231647 0.059304498 0.44890603 0.04032993 0.6876193 -0.10907182 -0.5912532 0.35462648 -0.6946196 -0.2645847 0.18369216 0.076562084 -0.29475367 0.126148 0.019163992 0.23433638 0.044762254 -0.009825992 0.19220474 0.06950956 0.028829971 0.06669769 -0.02320221 -0.26792306 -0.1561059
1805 0.43769798 0.16811962 0.091531895 0.43560934 0.12569632 -0.26679504 -0.093998976 -0.32108784 -0.020177023 0.30206078 0.6751536 0.3787272 -0.20228878 -0.9005196 0.10199647 -0.6937491 0.07019235 -0.2219116 0.05228932 -0.3460493 0.11505826 0.5177803 -0.11195967 0.1433199 -0.2436575 0.07200623 0.4232553 -0.20020397 0.1319578 0.10238047 -0.13500503 0.1341961
1205 0.3057025 0.25463024 -0.0030434877 -0.2245042 0.24513146 -0.467448 -0.009257305 -0.5267887 -0.25865635 0.15607771 -0.15864569 0.058464672 -0.2829293 -0.1174689 0.115968555 -0.91397583 -0.2244918 0.14282355 -0.419885 -0.014703254 0.060191583 0.3185709 -0.38219523 -0.08660323 -0.103065684 0.1725834 0.58541083 -0.43141532 -0.07906238 -0.14714728 0.12995633 -0.042435907
1093 0.5638357 0.35144877 0.23484443 -0.08331879 -0.042281855 0.08596347 0.07741377 -0.6771468 -0.07211151 0.4554975 -0.6275957 -0.005188625 -0.10580911 -0.44828206 0.761883 -0.56655854 -0.07883042 0.36925912 -0.36037788 -0.0121045355 0.33309555 0.079515964 0.21767773 -0.09609516 0.22237606 0.15642856 0.42651746 0.020376163 -0.12847915 -0.5712497 -0.26718986 0.06279754
1801 0.13561532 0.45609176 0.05745537 0.055935133 0.31506228 -0.44857717 0.41778237 -0.6999068 -0.43893698 0.32463157 0.13068976 0.012769228 0.06607569 -0.3921111 0.059730515 -0.8778509 -0.096347116 -0.2998191 -0.15996863 0.06547231 0.1618875 0.3862626 0.11983711 0.22733304 0.45261124 0.4491833 0.839508 -0.03351005 -0.055759847 -0.06406089 0.03715325 -0.42527148
288 0.24163702 0.43596795 -0.13261002 -0.4786216 -0.045534536 -0.19015078 -0.2888402 -0.30994055 0.13156848 0.50611246 -0.03406917 0.5981053 -0.11070569 -0.39388523 0.62707096 -0.48488456 -0.34116396 0.17514597 -0.09821667 -0.3262102 -0.07816262 0.17572604 -0.056345414 -0.05959349 0.4746077 -0.0803731 -0.24868922 -0.063911155 -0.18360363 -0.20475258 -0.5628055 0.13755691
1031 0.25583684 0.09609859 0.046222202 0.013631004 0.3013749 -0.1175069 -0.05216261 -0.62672657 0.18292 0.3578005 0.13977095 0.30459082 -0.26983416 -0.43219188 0.02407505 -0.8300956 -0.17650852 -0.16304837 -0.14531605 -0.5121581 0.6650915 0.24443008 0.3440917 0.20179577 -0.0097211655 0.022839392 0.8559301 0.025214806 0.23487642 -0.17652893 0.15610164 -0.16995421
695 -0.37988666 0.14964642 0.3047736 -0.034516577 -0.038671948 0.41139096 -0.021061324 -0.5733839 0.41506928 0.13127932 0.0907189 0.23549983 -0.054037195 -0.3681215 0.9769891 -0.58425224 -0.3453524 -0.59209716 -0.47874045 -0.6545914 -0.087290585 0.09647486 -0.24999309 -0.88352656 -0.102539204 0.18351574 0.20503856 -0.19913866 -0.20707893 0.67188936 -0.33771276 0.12048525
1433 -0.4906883 0.116767995 0.14198153 -0.7855588 -0.31620136 -0.40976158 -0.24217337 -0.6449495 0.3485509 0.7055255 -0.0572215 0.02684024 -0.1794027 -0.2376452 0.47995657 -0.37345988 0.341292 -0.5141254 0.40497372 -0.29080892 0.08691573 0.46144423 -0.08146728 -0.20489454 -0.0027548668 -0.086986795 -0.33348176 -0.09023737 -0.47812644 -0.12523983 0.21043485 0.24583726
271 0.27896887 0.05725261 0.06468787 -0.14183915 -0.44824684 -0.21007635 -0.1755795 -0.2253506 0.27543223 0.36270756 0.17966974 0.34117743 -0.035635617 -0.5799005 0.25099367 -0.7043455 0.29650328 0.02362477 0.12148978 0.07094206 0.3280282 0.56329817 -0.09355449 0.4095824 -0.19160344 0.33838376 0.2703364 -0.33605617 0.27304572 0.43600345 0.40877894 -0.25255644
1927 0.08983906 0.112877846 -0.53578407 0.30849627 -0.100148074 0.047987916 0.1961331 -0.30051094 0.0391141 0.12544872 -0.6138186 0.25162366 0.115795955 -0.6964717 0.25340182 -0.7968114 -0.019770814 -0.26608175 0.015376139 0.028752008 0.13287257 0.24201748 -0.38661802 0.019502858 0.6362726 0.2500369 -0.511588 -0.31563532 0.060613863 -0.4963758 0.18870296 -0.16177404
279 -0.35643047 0.062297963 -0.03169188 -0.21405444 -0.107240945 0.12600614 -0.13805564 -0.55851644 0.20243976 0.60193616 0.2488335 0.12671623 0.21460372 -0.5693683 0.26799914 -0.52408576 -0.10933933 -0.4815358 -0.7093536 0.17248072 0.17558753 0.23509236 -0.2692457 0.36600733 -0.1499967 0.31457233 -0.4438854 -0.18022835 -0.30622596 0.24798734 -0.07135614 -0.3836333
820 -0.020122886 0.8614824 -0.012838099 -0.24599436 0.33075643 -0.49147427 0.50529516 -0.68785495 -0.2801179 0.31696793 0.1615656 -0.14779846 -0.028993178 -0.62818426 0.115842216 -0.76897335 0.0127137145 0.115200266 -0.08422008 0.21391149 -0.10457481 0.085857116 0.17533174 -0.0025615974 0.32043734 -0.07998609 0.33735973 -0.40904483 0.384464 -0.17080516 0.044337098 0.07513947
1287 -0.3170311 -0.8080374 0.3377079 -0.30736238 0.35495058 -0.057816908 0.29784757 0.11021047 0.31960768 -0.31206533 0.3654704 -0.016045256 0.56592673 -0.5948743 0.7273363 -0.6770125 -0.5046852 -0.24663803 0.09019798 -0.086240605 0.13304621 -0.44886604 -0.6651625 -0.3293425 -0.25009722 0.71436536 0.15195656 -0.38284796 0.4927453 -0.5094507 -0.14490566 0.101158
679 0.2960431 0.16235952 -0.06290494 -0.1406113 0.51330984 -0.69795823 0.42728898 -0.8356386 0.31976262 0.019282566 -0.047346722 0.34372872 0.09078441 -0.50460994 0.66479933 -0.51711607 0.11323996 0.20158371 -0.12550259 0.1021275 0.23232503 0.08979025 0.45955956 0.01934827 0.0030290443 -0.02760939 0.3419706 0.17268172 0.4226332 -0.33416417 -0.10947927 -0.063137986
1344 0.056003876 -0.44944575 0.004717746 0.14634009 0.38770452 0.22379489 -0.13028531 -0.026511718 0.45049897 -0.31732073 0.22610894 -0.0645485 -0.116587974 -0.5078759 0.58933645 -0.42251062 -0.056477163 -0.75757974 0.18164642 -0.43170506 -0.12862857 -0.23978749 -0.29532614 0.12376323 0.60392284 0.70208937 -0.04018151 -0.5334187 0.33661312 -0.6729212 0.39028892 0.23780847
1901 -0.4692505 -0.67334414 0.35837704 -0.41473725 0.38765556 -0.060962416 0.20597723 0.09261606 0.13808592 -0.34994024 0.17319156 0.018034304 0.12670715 -0.767156 0.4318917 -0.845639 -0.5100024 -0.330324 0.08335713 0.0767451 0.15298955 -0.42260852 -0.5120901 0.030828346 -0.007770702 0.7729903 -0.013170923 -0.5631768 0.30605444 -0.75541484 -0.039532725 0.28194132
30 -0.44200593 0.21256514 -0.021806985 -0.08906775 -0.19363905 -0.07642642 0.0976602 -0.6680908 -0.26461405 0.20564951 -0.033000942 -0.047689226 -0.06964821 -0.5714945 0.5953216 -0.45080626 -0.17783275 -0.6238415 0.5179621 0.24647148 0.30126822 0.013906421 -0.31064132 0.13160643 0.110794365 0.36513713 -0.8977252 -0.3331636 0.3238432 -0.05887759 -0.22211856 0.08256676
1534 0.56351435 0.65064806 0.2770576 -0.4097111 0.09996496 -0.5684051 0.09423913 -0.4026787 -0.3673291 0.2520323 -0.096006334 -0.07131645 -0.022611713 -0.16182986 0.4801586 -0.6997749 -0.19648905 0.23981394 -0.36378932 0.11288931 0.25048926 -0.08952848 0.08323872 -0.067765325 0.0024589708 0.08418651 0.41619235 -0.56886655 0.029596347 -0.5249052 -0.16913733 0.17723496
643 -0.3777224 -0.57709527 0.40683442 -0.33894986 0.051280856 -0.074831754 0.21099702 -0.019144027 0.23329952 -0.41541737 0.30065438 0.108212814 -0.05976668 -0.72269416 0.32030648 -0.79132766 -0.49689373 -0.22867696 0.28267166 0.0052384655 -0.0021384505 -0.4553404 -0.68004364 -0.054531816 0.07892276 0.8274379 0.2528411 -0.6106378 0.41722548 -0.73087573 0.03391944 0.3271037
260 0.30390024 0.25928685 -0.057280064 -0.0004569779 -0.28995013 -0.6305362 0.30343425 -0.28571934 0.76609516 0.41340187 -0.2533759 0.7021514 0.0807195 -0.60440916 0.47981226 -0.60152376 0.117785014 0.094867215 -0.20552137 -0.13442814 -0.020438166 -0.052775547 0.0014176168 0.19518638 0.22433951 0.045473635 -0.20659734 0.31874374 0.18369079 -0.23559447 -0.06797705 -0.10808459
1019 -0.08651149 0.22325785 -0.35829997 -0.26438895 -0.1772626 -0.2969653 0.3991264 -0.36246923 -0.4393213 0.70419 0.0565404 -0.1011883 0.07544182 -0.8288085 0.31973878 -0.77020806 -0.20188166 0.28945002 0.29817417 0.20656334 -0.17632207 0.07470137 0.084061176 0.15600912 -0.10622436 0.056490514 -0.23964752 -0.49085233 0.5608297 0.15270652 -0.26818478 -0.051002316
1363 0.77797997 0.119898565 0.10856368 -0.71625376 0.19828953 -0.2946024 -0.3534194 -0.5062254 -0.10385582 0.22410963 -0.043567687 0.43447837 -0.102238335 -0.36952555 0.58211535 -0.36320335 -0.379901 0.14975938 -0.16533275 -0.43945536 0.28685626 0.1996656 -0.01833098 0.14764114 0.6836386 -0.068591066 0.5482695 -0.020948645 0.29130515 -0.20753945 -0.14227742 -0.1599527
1830 -0.54921937 -0.10609134 -0.3016394 -0.20481114 0.062362097 0.057113383 -0.33489656 -0.6232502 -0.16850218 0.27273932 -0.18145745 0.019886343 -0.16442238 -0.936226 0.45999563 -0.50295097 0.25072718 -0.11385523 -0.023600278 0.18700357 0.40919444 0.12574324 -0.33047056 0.14043881 -0.05083844 0.07767681 -0.6536665 -0.025942255 0.33625087 -0.24927616 0.025477313 -0.17892416
103 -0.18045957 0.026697222 0.3915736 0.20151064 -0.22277017 -0.27362296 -0.18808652 -0.5646647 -0.22858332 0.1884011 0.008944286 0.08255508 0.058793988 -0.6032224 0.7343009 -0.410347 0.20237611 0.719033 -0.2637978 -0.2919832 0.3971773 0.3666615 -0.43021715 -0.23921062 -0.24483664 0.27991214 0.18526487 -0.48882648 -0.12156855 0.046024036 0.38692254 0.20268492
868 0.3715884 0.08919042 -0.21531844 -0.29798162 0.22123629 -0.11088136 -0.18186626 -0.7567871 -0.09097459 0.41712356 -0.008706239 0.33753616 0.04146438 -0.42545134 0.4277023 -0.6697013 -0.20744862 0.64871323 -0.0076382323 -0.19627151 -0.4075585 -0.06203568 0.33318952 -0.07521052 0.10835473 0.01684158 0.28032517 -0.4771061 -0.11612404 -0.3220283 0.12040061 0.020021887
1242 0.25967684 0.3181957 0.048519958 -0.17501025 0.033799432 0.02567662 0.26307365 -0.72804576 0.36572382 0.5370942 0.37902594 0.29375982 0.1844741 -0.28835106 0.3497478 -0.30955282 0.0916719 -0.44470614 -0.2912105 -0.4495456 0.37957594 -0.0224163 0.46625483 -0.1419021 -0.49924666 0.6392247 0.70244193 0.043148175 0.44384342 -0.26824096 0.21670498 0.008238968
1027 0.25033545 0.26942256 -0.30679435 0.11717334 -0.08914652 -0.16147102 0.037042722 -0.27609465 -0.122736074 -0.0743936 -0.11808294 0.19172193 0.08535799 -0.881026 0.53156793 -0.7546431 0.5250031 -0.17172095 0.114380606 -0.1449258 0.033479374 -0.14316301 -0.5899634 0.12970634 -0.10967093 0.027653608 -0.18826005 -0.18349397 0.067338444 0.15159845 0.47043306 -0.04791117
1621 0.58048046 0.5683193 -0.03449828 -0.3082722 -0.03702196 0.25021902 0.05686785 -0.22509214 -0.2516106 0.7173917 -0.15291588 0.26583982 0.28700632 -0.55743957 0.3650643 -0.84651196 0.064175665 0.26444948 0.23610699 0.13720617 -0.07328215 0.004002385 0.065334015 -0.0022062433 0.38942793 0.148976 -0.10262066 -0.3919738 0.24894702 -0.3950545 -0.57280374 0.22548641
409 0.27672794 0.0058508622 0.07706715 -0.103649415 0.15420286 -0.25798467 0.09018134 -0.58946264 0.5433478 0.8847585 0.5518613 0.11337037 -0.19221032 -0.17678878 0.089017585 -0.38913554 -0.0017330862 -0.4675042 -0.15799163 -0.2678766 0.83273554 0.23047166 -0.118942924 -0.348865 -0.27861628 0.055855907 0.72814375 -0.032793704 0.46510908 -0.16935024 0.21685274 -0.16616957
891 0.3593238 0.3193958 -0.4139493 -0.04312919 -0.12259494 -0.12065935 0.4054725 0.14394675 0.3197879 0.5163915 -0.3078086 0.38854772 0.18707325 -0.16347797 0.40595543 -0.98797774 0.18510869 -0.081368156 -0.26661727 -0.099690996 0.5229189 -0.19818844 -0.24726933 0.35648555 0.034415502 0.19226366 -0.041459765 -0.26538607 -0.10868657 -0.28276044 -0.07932622 -0.29426792
875 0.1203658 0.33005264 -0.34636253 -0.035188872 -0.47998357 0.22175547 0.35395354 -0.31306705 0.31409144 0.40421668 -0.3696549 0.31810683 0.15674321 -0.30739295 0.18308757 -0.69437855 0.28555733 -0.50171286 -0.3216407 -0.17382821 0.110396296 0.054193895 -0.23962922 -0.0009297864 0.50802624 0.066738315 -0.37880388 -0.67988026 -0.29083976 -0.51628125 -0.08993192 -0.34693527
1494 0.50667083 0.105709635 0.08076525 -0.37340376 -0.13719112 -0.5669344 0.094261505 -0.3400895 0.22645162 0.34647992 -0.0554257 0.11096403 0.09618247 -0.4244094 0.5955742 -0.54245627 0.21385133 -0.46466365 -0.1726953 -0.312636 -0.35325035 0.05171311 -0.40294036 0.25916746 0.08219466 -0.048018847 -0.19565043 -0.021244988 0.12176877 0.15207975 0.31016636 0.09199096
1370 0.055654567 -0.122413374 -0.016482929 -0.021011505 -0.2795634 -0.610714 -0.14345802 -0.49605134 0.14842372 0.37972364 0.032517854 0.089379415 0.23944208 -0.32243985 0.48947394 -0.55949414 0.6405107 -0.24740744 0.050345387 0.11694005 0.025805827 0.37349242 -0.36846653 0.23706055 0.114991106 0.6343733 0.019486533 -0.0839233 0.41949773 0.26736253 0.30006155 -0.08745819
1304 0.3023216 0.42961743 0.28718895 -0.036556847 0.20013662 -0.21169706 -0.088813394 -0.73750263 0.10198801 0.3608091 0.021910042 -0.0050516077 -0.41629428 -0.49931455 -0.0027283432 -0.73180383 -0.21508482 -0.44367507 0.079373404 -0.25516176 0.42141595 0.4393882 0.42286655 0.16257252 -0.2383784 0.45756215 0.91789025 0.08945015 0.10020086 -0.22831264 0.16625132 -0.28077367
1781 -0.35777268 0.18973279 -0.17755596 -0.68498564 0.249254 -0.3299906 -0.21453762 -0.3166208 0.20300524 0.64595306 0.21197858 0.056868542 -0.12717545 -0.26285827 0.28503975 -0.38433236 0.24964266 -0.5428883 -0.26374638 -0.4332179 0.41796595 0.37188956 -0.5953111 -0.64927334 -0.07884699 -0.21617976 -0.26426312 -0.40448278 -0.34319097 -0.24636072 -0.2450398 -0.119643666
777 -0.29261243 -0.12969495 -0.29340464 0.18937294 -0.17252988 -0.0024076598 -0.46003938 -0.66541004 0.00046858093 0.21353419 -0.21021388 -0.02281458 -0.17455342 -0.7007268 0.3444308 -0.71517277 0.6912415 -0.20412269 0.38799107 0.154599 -0.14291483 -0.19563907 -0.31684536 0.17392533 0.20624377 0.15513234 -0.135086 -0.31477964 0.23670189 -0.3747793 0.21706985 -0.24381824
131 0.48653406 0.25823587 0.5466388 0.03365748 0.18009198 0.13449772 -0.10169995 0.15076998 0.08399383 0.47644985 -0.5933529 0.32144848 0.13458914 -0.61537755 0.19968894 -0.80265975 -0.070943676 0.0013556767 0.006305744 -0.46710134 0.025577156 0.030485803 -0.45842144 0.07692319 0.4618432 0.077360734 -0.21455644 -0.20681378 0.3076599 -0.35911742 -0.30480096 -0.40086076
369 -0.20261069 -0.024002537 -0.38532498 -0.18474276 -0.19204599 -0.19271354 -0.22464223 -0.49038887 -0.3908471 0.27174926 -0.18260719 -0.06893707 0.08902624 -1.0162066 0.13006832 -0.6332525 0.1919641 -0.2506475 0.20892203 -0.075101465 -0.09170692 -0.32487112 -0.3901551 -0.33952674 -0.017293151 0.11743672 -0.5107967 -0.3069605 0.16774295 -0.38767898 0.6449193 -0.009012676
284 -0.38097566 -0.25057644 -0.3242341 -0.011806322 0.5597822 -0.44756222 0.4054597 -0.20584624 0.14633177 -0.25377485 -0.16229206 -0.13901897 0.014264258 -0.8407832 0.16743039 -0.78292596 -0.3393314 -0.2580155 0.07094064 0.19110495 -0.2551196 -0.383096 -0.9262105 -0.018728662 0.17783754 0.18941267 0.29229155 -0.30945936 0.071060635 -0.7007097 0.056984406 0.09364678
1792 -0.72627735 -0.70745486 0.30850294 -0.37665805 0.041596193 -0.083963014 0.19425498 0.22274482 0.5807588 0.0019995936 0.02793897 0.09262942 0.1049493 -1.077044 0.24702573 -1.0683492 -0.3892518 -0.22346278 0.19983856 0.46050754 -0.031909313 -0.4023161 -0.42710626 -0.2220206 0.02760794 0.81115925 0.23525982 -0.41773337 0.2555367 -0.75469184 0.12787089 0.5418471
1868 0.65370476 -0.42597637 -0.09610628 -0.24956605 -0.014669376 -0.33385098 0.27544212 -0.3128949 0.08667372 0.15724461 0.5996141 0.15423751 -0.3661115 -0.78065354 0.16671304 -0.62898856 -0.0796092 0.041810513 0.1210425 0.030737938 0.3275 0.07064946 0.2942178 0.25532705 -0.2501047 0.38515335 0.29094395 -0.49692038 -0.3045116 0.2123407 0.00980914 -0.12663181
550 -0.34985206 0.34500396 -0.11836594 -0.67195535 0.08285821 0.17183967 -0.21944053 -0.5572508 0.18350674 0.22680315 0.09126687 0.114710175 -0.04995055 -0.63255715 0.19068573 -0.44186294 0.19302511 -0.19641393 -0.0924774 -0.13970892 0.7161277 0.20601618 -0.37865034 -0.0989967 -0.021803288 -0.11961859 -0.8860411 -0.3264494 0.07782443 -0.12436558 0.072638646 0.005331526
852 -0.045462288 0.8653027 -0.01562668 -0.2951925 0.26691717 -0.63226175 0.3243804 -0.34906846 -0.4102691 0.15462491 0.06735017 -0.10587917 -0.18447226 -0.3527123 0.21861428 -0.87184495 -0.11806489 -0.16955625 -0.13262348 0.10781436 0.19897008 0.017995352 0.15763593 -0.19430646 0.079395495 0.17199087 0.6451077 -0.44100127 0.12840667 -0.07269441 0.09105905 -0.17154528
1064 0.61075836 0.20366843 -0.14793824 0.13664034 -0.2232843 -0.11440667 -0.25970381 -0.5094717 0.20065853 0.26779148 0.6849678 0.305546 -0.19879633 -0.67133766 0.11348498 -0.6963399 -0.027797285 0.008583094 0.10268171 0.013862404 0.14235789 0.6546763 -0.13641389 0.04538136 -0.56317997 0.28602776 0.44354355 -0.18175194 0.15898755 0.008842498 -0.41542518 0.19652542
959 0.48137978 0.052738238 -0.4411009 -0.2659507 -0.0005818418 -0.56286395 -0.06992714 -0.564078 0.77298826 -0.011526149 0.26880014 0.4576337 -0.0774469 -0.3846928 0.35157198 -0.44051954 0.37506947 0.08589517 -0.2768155 -0.017231455 0.45488927 0.25454852 -0.1855246 0.020044014 -0.23910943 0.22820313 0.20553882 0.037672598 0.5677397 -0.008210829 0.13311636 -0.0981608
783 0.37100482 0.53319883 0.14241882 -0.011925566 -0.46469572 -0.2125939 0.29864487 -0.029927192 0.28887773 0.29778057 -0.32850075 0.43148005 0.099870466 -0.83980846 0.49558753 -0.7991273 0.29910946 0.59204197 -0.0347664 -0.14707704 0.12892736 -0.38182133 -0.33567697 0.054376766 0.094466545 -0.07884085 -0.09061457 -0.01776255 0.12910187 -0.17226748 -0.30534765 -0.39456877
1399 -0.56615156 -0.020197017 -0.2450023 -0.32252127 0.07031982 0.09363492 -0.26717022 -0.38755557 -0.066587806 0.42956144 0.059718173 -0.17453262 0.17676084 -1.079336 0.20929977 -0.528965 -0.14140508 -0.035689022 -0.42043403 0.18495336 0.36217946 0.40909466 -0.23832154 0.17435928 -0.3105053 0.29808506 -0.8121853 -0.11031387 0.08289997 -0.19180752 -0.07565237 -0.31221527
181 0.33156067 0.36917403 -0.4078069 -0.06951364 -0.32193705 -0.2738416 -0.12140636 -0.19800824 0.108348005 0.099580914 0.091129996 0.12391272 -0.01403164 -0.59582424 0.7184359 -0.8144333 0.35372218 -0.21167637 -0.34579444 -0.13886712 0.24671644 -0.09062918 -0.39682323 0.01497739 0.14401147 0.054420568 -0.37296093 0.05897817 0.16180703 0.38098484 0.18056959 0.009771445
314 -0.24856852 -0.63789994 0.26891914 -0.47601086 0.27756122 -0.12279422 0.04116866 0.23867002 0.15872326 -0.40155017 0.37786338 -0.07678195 0.2577172 -0.7777896 0.3480724 -0.8289303 -0.6554933 -0.21442784 0.19864683 0.008036192 0.18417802 -0.4143346 -0.5641424 -0.09542697 0.047617313 0.8875342 -0.022294363 -0.6345073 0.14593986 -0.7383306 -0.015622034 0.11483906
664 0.14550586 0.43623662 -0.0025118953 -0.060872745 -0.37632674 0.022460677 0.11469818 -0.41848838 0.44088262 0.40020972 0.11783854 -0.09982772 0.10816356 -0.49385273 0.73934585 -0.6398362 -0.1574164 -0.45517913 -0.6177352 -0.34425697 0.008002509 -0.06805166 -0.047278345 0.18337876 0.013155425 0.11915292 -0.41783598 0.005341618 -0.23188455 0.40768903 0.1069672 -0.018188443
525 0.06294697 -0.83370686 -0.100765154 0.0092342 0.65951425 -0.13811664 -0.06624166 -0.54544693 -0.0014979376 0.11919816 -0.0782066 -0.07337748 -0.09459334 -0.79897463 0.25190264 -0.526573 0.1697786 0.10648117 0.038362302 -0.0105723115 -0.015106186 -0.64977616 -0.17124754 0.34557155 0.088236704 0.67308366 -0.14919192 -0.541067 -0.022886643 -0.3597839 -0.026785871 0.15596668
600 0.6317378 -0.05139924 0.008533828 0.1565467 0.3309829 0.028568806 -0.055280283 -0.176667 0.3808066 0.5723195 -0.36646342 0.45813984 -0.22761121 -0.68403864 0.50319356 -0.49642226 0.21820213 0.08247707 -0.37989244 -0.34864014 -0.2079499 0.093672656 -0.06118223 0.26438388 0.27052727 0.056690417 0.0072335606 -0.26176298 -0.0026885152 -0.5397065 -0.51437855 0.07767176
171 0.07281725 0.16768989 -0.55085987 0.027091514 -0.010326729 -0.33314455 0.2043407 -0.31671956 0.0897645 0.36451602 0.43154985 0.24936458 -0.6497354 -0.7358333 0.51192564 -0.13099432 0.4184864 0.2735991 -0.47435552 -0.046048507 0.055372242 0.15488839 -0.2742848 -0.7032202 0.31425658 0.90095514 -0.090222396 -0.17249195 0.040277064 0.0339584 -0.10714753 0.07735777
1349 0.34442258 0.40903407 -0.31209257 0.051580854 -0.28051051 -0.24015313 0.30199072 -0.17939644 0.21364185 0.3965662 -0.3852579 0.40322188 0.18872435 -0.52529037 0.7297896 -0.6548354 0.07886539 0.01699397 0.14334662 -0.0754526 0.04581481 -0.23899329 -0.32379422 -0.032532748 0.15494804 -0.013584826 -0.24280813 -0.028870976 0.059722777 -0.35158828 -0.31264535 -0.46844023
465 -0.11101733 0.38617244 0.13933812 -0.09880042 -0.26603603 0.21329618 -0.34771746 -0.71115595 0.5389474 0.3024257 0.09391036 0.08511393 0.2121779 -0.4394585 0.8630417 -0.45190275 -0.4199822 -0.41820085 -0.3691632 -0.17828618 -0.21909389 -0.032177184 -0.22288066 -0.04535286 0.112496346 -0.076660305 0.13487566 -0.18943802 -0.12289762 0.57999533 -0.29301262 0.18677369
696 0.5886798 0.45189637 0.4556979 -0.016636753 0.037382733 -0.08045393 -0.53396994 0.11468858 0.24017358 0.42243737 0.0061060404 0.5309266 0.09480837 -0.9741815 -0.11763395 -0.51945925 -0.20919287 -0.38369313 0.11561161 -0.2694203 0.048039 0.8246079 -0.008811148 0.047713794 0.03582489 0.28365105 0.45915574 -0.12695973 0.10452384 -0.10306745 -0.009120306 -0.14766847
1527 -0.051315583 0.38312137 -0.13362603 0.002507614 0.60119545 -0.35072675 0.45705578 -0.527628 -0.13820961 0.4005502 0.3921676 -0.121966675 0.3597974 -0.75713354 0.08461497 -0.758598 0.24450578 0.09987237 0.009998404 -0.042684626 -0.20432988 0.063996725 0.13197021 0.20255788 0.63281107 0.0068066367 0.1549025 -0.2675554 -0.05176691 -0.13480665 -0.038137894 -0.21896517
220 -0.50866807 0.2052574 -0.22483592 -0.5044743 0.09505585 -0.15930626 -0.066455685 -0.51617694 0.38339144 0.33529675 0.17443283 0.49015427 0.1837733 -0.07576092 0.34418362 -0.5960483 0.32215077 -0.42893398 -0.051528715 -0.4488424 0.11715805 0.28996107 0.16497706 -0.50081426 0.57954115 -0.23588717 0.011977502 -0.7070375 -0.46732605 -0.048365615 -0.18183185 -0.32216308
917 0.20793623 0.5155878 -0.019432867 0.02162014 0.11998907 -0.6288428 0.21708341 -0.876382 0.074021325 -0.0014877188 0.07052493 -0.1300812 -0.0173677 -0.040567305 0.28500006 -0.59465384 0.06013005 0.31672516 0.25090632 -0.12968247 0.27313286 -0.21036932 -0.3137771 -0.110142566 0.30204663 0.1346978 -0.2640848 -0.81446075 0.65795916 -0.14325702 -0.29690897 0.05731836
1562 0.24176604 0.06196724 0.008281955 -0.15717766 -0.22050858 -0.24590346 -0.06432493 -0.5448612 0.8087223 0.3377795 0.36791274 0.31581002 0.4822666 -0.47721732 0.13084649 -0.41932008 0.29376078 -0.0020316872 -0.3481473 0.072258584 0.08908689 0.6379479 0.11217802 0.5812945 -0.29487172 0.69355166 0.17525321 -0.1399776 0.40481728 0.0006746851 -0.098702244 -0.37437
383 -0.22174715 -0.35215566 -0.24514933 -0.0993714 0.6065156 -0.35190415 0.19421974 -0.20812602 -0.027876366 0.23869658 -0.021818835 0.19337326 0.16031408 -0.5761092 0.104526006 -0.84710836 -0.29280972 -0.05811795 0.14807881 -0.015767265 -0.091097444 -0.8259657 -0.7378172 0.33650172 -0.0073987725 0.5420082 0.40491566 -0.35415825 -0.013589898 -0.5514849 0.43635717 0.053199153
1894 0.16239211 0.095524825 0.15049675 -0.15100121 0.22478196 -0.13365154 -0.0056240847 -0.5675756 0.14443389 0.111330725 0.18329369 0.109483086 -0.2674429 -0.4138808 0.12260419 -0.7844912 -0.09141362 -0.21443363 -0.42452317 -0.47056645 0.62294096 0.08103188 0.10607156 0.3023691 0.11108449 -0.07449289 1.0901724 -0.10938225 0.13291982 -0.068532534 0.16981564 -0.36659005
531 0.33744055 -0.22809236 0.2415589 -0.6595047 -0.19238709 -0.33384094 0.15563786 -0.24344622 0.2936955 0.36913848 0.13648318 -0.036431603 0.013745078 -0.57554185 0.120330535 -0.50237685 0.2538077 -0.28332272 0.26641768 0.2148213 0.17194146 0.21522318 -0.57944953 0.31049514 -0.22130616 0.07566866 -0.21107234 -0.5014758 0.19469927 0.31043708 0.41636848 0.252196
1415 0.36556804 0.3480044 0.35519645 -0.1849491 -0.042869315 -0.45062718 -0.043538503 -0.6024444 0.81093943 0.15462655 0.08294954 0.33261973 0.0662155 -0.9005344 -0.13988136 -0.30570045 -0.021200432 -0.51857626 0.04545917 -0.019437574 0.097088225 -0.07255155 0.4451412 0.17854108 -0.3504347 0.43619922 0.5542647 -0.13276812 0.18369919 -0.0014740331 -0.13712719 0.059064675
1902 0.6870841 0.1819434 0.04444727 -0.44881088 0.11161409 -0.2674613 -0.27116105 -0.28859976 0.038665798 0.58477587 0.1030182 0.63559604 0.14036554 -0.44575804 0.5939966 -0.47434327 -0.23716025 0.03881085 0.49878564 -0.28620267 -0.154909 0.49173582 -0.3787632 0.45507208 -0.06960016 0.028510248 0.296014 0.13017325 -0.026873099 -0.12915048 -0.14847815 -0.06246666
1237 -0.2946725 0.04769589 -0.52626806 0.13483234 -0.012155586 -0.10050741 -0.22719891 -0.5982342 -0.39910117 0.14092574 -0.25561547 0.0074455375 0.11085874 -0.97742546 0.32118052 -0.6601771 0.27746326 -0.20421422 0.16019033 -0.21015362 -0.06748242 -0.15854947 -0.2364012 -0.16135976 -0.0030704634 0.15568404 -0.40835568 -0.20082268 0.218227 -0.41852146 0.47465068 -0.2004984
812 0.52230954 -0.11430865 -0.26366156 0.1670497 0.29251206 0.07630418 -0.012083784 -0.5713034 -0.054199416 0.58851963 0.08423715 0.3123711 -0.17015421 -0.6353727 0.5113437 -0.6621683 0.6074977 0.3881372 0.009378592 0.04546697 -0.031137932 -0.04437798 0.3779089 -0.08003562 0.040571343 0.18127033 -0.06610394 -0.4914257 0.023894342 -0.38549417 -0.27348796 0.09699282
1305 -0.2796434 0.06818048 0.46653616 -0.12569444 0.30241367 -0.019748008 -0.21689443 -0.65984863 0.23594575 0.10160959 0.2597206 0.14433534 0.29344565 -0.4357952 0.7011372 -0.6785768 -0.2554542 -0.54902416 -0.8069417 -0.34032103 -0.2580655 0.0003115474 0.112928264 -0.19849056 0.3906814 -0.22823267 0.29937813 -0.30008316 0.008149834 0.62445056 -0.48317087 0.005635681
996 0.058207802 -0.22469196 -0.5312102 -0.15829444 -0.26976573 0.14969616 -0.3623935 -0.6082502 0.13542064 0.80671597 -0.26292515 0.06376595 0.0821777 -0.18743654 0.970729 -0.34961778 0.053011876 0.14446916 -0.18913305 -0.25461057 -0.22445373 0.014460475 -0.23568244 0.125712 -0.026973924 0.423379 0.23574242 -0.49007192 -0.026827067 0.13343991 -0.21803062 0.04150104
1553 0.08874699 0.33448687 -0.4747761 0.06535589 -0.07101857 -0.2819876 -0.17583616 -0.40864807 -0.27392018 0.43576705 -0.39017302 -0.0412955 0.23586729 -0.84068465 0.6185322 -0.47593826 0.3854693 -0.20601924 -0.11999587 0.44065958 0.0025926444 0.017552167 -0.19590414 -0.22934197 0.0577891 0.430813 -0.1941765 -0.22608958 0.17075925 -0.3529635 0.22748439 -0.024796633
135 0.27555054 0.16196787 0.079121694 -0.20551518 -0.13271984 -0.72315973 0.33006927 -0.34802938 0.5881799 0.40499613 0.0937443 0.32092652 -0.09054115 -0.6176274 0.46514192 -0.5148733 -0.16092966 0.2619017 -0.18067347 -0.27535895 0.092033654 -0.52357745 -0.0032462403 0.40924567 0.0050758515 0.2888787 -0.6435142 0.24108195 0.19217417 0.048638694 -0.31551123 -0.21204016
1588 -0.5292029 0.019571302 0.02153409 -0.42757824 0.09754417 -0.1519375 -0.31706604 -0.5377145 0.17684996 0.3341154 -0.0044783703 -0.20990863 0.1955212 -0.6029346 0.40611553 -0.36732453 0.0068040704 -0.07909239 -0.43680727 -0.1150956 0.5414273 0.10347311 -0.505442 0.17752434 -0.27114806 -0.02265811 -0.8262605 -0.3323635 0.12634318 -0.11130021 -0.25887963 -0.47953102
762 0.15837337 0.022743901 0.4123409 -0.10171216 -0.122122385 -0.14470379 -0.063773386 -0.46188888 0.2756712 0.92639476 -0.0069628498 0.2132428 -0.52745974 -0.37203535 -0.07817754 -0.50989634 -0.041745715 -0.41099948 0.04470139 -0.2769823 0.51453096 0.39272523 -0.36108038 0.12506929 0.008474179 0.113231726 0.96921134 -0.055242255 -0.1203278 -0.13455537 0.43441746 -0.31944492
1881 0.84399426 -0.09853953 -0.12948269 0.10121952 0.15625784 0.19633935 -0.089477494 -0.58657134 0.32930514 0.5194712 0.25864252 -0.111155085 -0.39236057 -0.44329736 0.41966304 -0.594805 0.36005244 0.1272712 -0.55661637 -0.048903473 -0.20438029 -0.016875908 0.17714658 0.08289712 -0.22806947 0.40913847 0.1956297 -0.4467015 -0.11462838 -0.5067056 -0.52263975 0.2645354
1625 0.43560308 0.1519507 -0.28855345 -0.004132799 -0.26394016 -0.0061653545 0.0024459367 -0.3318667 0.16379406 0.29012766 -0.5519985 0.27058294 0.229796 -0.62315387 0.4288695 -0.6027909 0.46726707 -0.22193117 0.3386088 -0.33936778 0.038896028 -0.048611257 -0.41844797 0.0006900863 0.31356794 0.20958018 -0.21216623 -0.09785131 -0.2040291 -0.52378374 0.18834658 0.36777
503 -0.034268066 -0.15163684 -0.5835717 0.28718224 0.23938505 -0.17022836 0.09989381 -0.5325817 -0.18933137 0.2338423 -0.053440724 -0.013171312 -0.06412646 -0.93817765 0.64165145 -0.5820281 0.45337862 0.18627891 0.051199496 0.049132444 0.0039848825 -0.0014179407 0.13374609 -0.017050661 -0.0770775 0.10808606 0.019693546 -0.30730808 0.08130093 -0.36259627 0.056732096 0.1098691
431 0.30650052 0.09899924 -0.34222224 -0.07383718 -0.13343169 -0.67003703 0.11079376 -0.2717126 0.58694774 0.53240156 -0.40542576 0.4671482 0.2947502 -0.533242 0.57760936 -0.659116 0.25071025 0.07799748 -0.05963226 -0.12271005 -0.10419384 -0.023316253 0.075652786 0.26921445 0.04086157 0.15324545 -0.022107424 0.2307038 0.36932942 -0.22704114 -0.121253945 -0.27784842
1467 0.36083883 -0.02724413 -0.1466203 -0.12380016 0.6817488 -0.44703203 -0.14696588 -0.76547205 0.52987295 0.3863282 0.3695253 0.35516652 -0.25829774 -0.45145562 0.61041826 -0.37770087 -0.20202279 -0.051370792 -0.122817166 -0.1507039 0.36422515 -0.004540329 0.7016408 -0.11887784 0.32026172 0.035285946 0.3075541 0.2877521 0.5316419 -0.23613642 0.23896173 -0.09652713
608 -0.47232917 -0.14959194 -0.31117588 -0.09808584 -0.13079454 0.02433094 -0.35709077 -0.6705566 -0.39137825 0.17075054 -0.395447 -0.094570704 0.21148649 -0.9488338 0.4514198 -0.7165496 0.4707593 -0.15837874 0.2071422 0.29618147 0.26867777 0.13341245 -0.27485418 0.07242951 -0.09768031 0.34228534 -0.42259294 -0.035920653 0.260937 -0.45577538 0.016168935 -0.18520221
637 -0.27542052 0.26414564 0.16280085 -0.72560847 0.17918465 0.28303826 -0.2088617 -0.7906488 0.097528785 0.21058466 0.06615138 -0.078604005 0.09164055 -0.55797154 0.34494674 -0.56249225 0.3697049 -0.32587013 -0.20409063 -0.14204317 0.5902836 0.17726786 -0.51826054 0.07437285 -0.088338785 -0.008671557 -0.89802444 -0.07030848 -0.2587805 -0.12033624 0.030698461 0.06370028
1883 0.032110445 0.22925106 -0.07300809 -0.6454464 -0.23202299 -0.33486414 -0.28998446 -0.45001215 0.06577609 0.15204367 -0.014675861 -0.05000817 -0.075204246 -0.6240085 0.3829698 -0.61195916 0.44199827 -0.08595951 -0.19055936 -0.5839319 0.42826003 0.17397271 -0.65376806 -0.18592414 -0.03182959 -0.05349107 -0.852014 0.12906535 -0.03776646 -0.059855975 0.07264616 0.40962785
989 0.28609395 -0.0042525195 -0.32560575 0.20629846 0.16577306 -0.5294376 0.009324364 -0.6103248 0.14846513 0.2096603 0.3633871 0.29623112 -0.0125445295 -0.63934785 0.67497665 -0.40932965 0.06821792 -0.14972554 0.001316422 0.09349812 0.17471528 0.6634607 -0.83765566 0.0617152 -0.16519558 -0.3848125 -0.0328359 0.047390413 0.18216892 0.006316249 -0.50828755 0.31490523
1117 0.49972147 0.18345715 0.5874118 -0.27722016 0.24183297 -0.37059945 -0.24683136 -0.20828368 0.2532393 0.45156178 -0.13555305 0.58071965 -0.09317619 -0.43670884 0.17043085 -0.6312112 -0.19677377 -0.20324558 0.24817036 -0.2393378 -0.08745178 0.26252562 0.15416305 0.36255586 -0.16843964 0.15815943 0.39802426 -0.30594036 0.14216147 0.09806032 0.27299514 -0.6086401
448 -0.13500214 0.6345023 -0.084093325 -0.3430544 -0.12365579 -0.039288484 0.15293208 -0.37865666 -0.21225233 0.15812142 -0.064363025 -0.044720046 0.22415087 -0.5744796 0.13546188 -0.6720439 0.21196385 0.037508223 -0.34243757 -0.23327619 0.030575732 0.1607387 -0.73935354 0.16525729 0.19937976 0.055116266 -0.53056806 -0.6857636 -0.3841836 -0.38983628 0.22316714 -0.37535
1502 0.2947061 0.4780753 0.09637924 -0.3619641 -0.039132748 0.20091034 -0.2102178 -0.21679957 -0.005721867 0.7500138 -0.2786216 0.5174223 -0.102212965 -0.29806933 0.44162884 -0.6554311 -0.29030454 0.09192962 -0.29617336 -0.4830601 -0.3178883 -0.25668934 0.10401026 0.052756947 0.11906642 -0.0034844354 0.0048096958 -0.49704432 -0.18472536 -0.48920754 -0.3317208 -0.07806451
1476 -0.60937494 -0.8410837 0.28773794 -0.3700339 0.090121344 -0.20997295 -0.10080469 0.097010344 0.41774318 -0.10533339 -0.14316764 0.01735176 0.19655555 -0.97125447 0.39976397 -0.9368206 -0.36780843 -0.19971085 0.2080323 0.3790858 0.12786795 -0.394469 -0.48747918 0.07358757 0.112228096 0.9007747 0.09388765 -0.34542328 0.10993367 -0.7676251 0.17480509 0.45853972
818 -0.05184322 0.11015873 0.18493646 -0.9286727 0.113012105 -0.23637441 -0.34650397 -0.33652174 0.33713794 0.408519 0.44676554 0.22967918 0.114300154 -0.5268066 0.061044637 -0.2664015 0.419044 -0.20860043 0.16570348 -0.17316385 0.46921867 0.35924533 -0.46013445 -0.46206692 0.11088317 -0.015316873 -0.42931783 -0.22077265 -0.5063787 -0.15377167 -0.082658015 0.046205964
242 -0.21777864 0.39852217 -0.11008583 -0.63425446 0.12686636 0.07664791 -0.38581935 -0.6154958 0.16419925 0.2337205 -0.064413235 0.1791509 0.20546661 -0.51630676 0.26336992 -0.50610965 0.13767067 -0.35111 -0.2833648 -0.10383729 0.46813226 0.1434767 -0.43101645 0.19486739 -0.053940717 0.086077735 -0.7795337 -0.07457332 -0.31722996 -0.27767146 -0.016969776 -0.2325325
365 0.37975106 0.08440306 -0.027141685 -0.5822191 -0.2912525 -0.25860277 0.2913007 -0.25236157 0.6126096 0.49271575 0.07802886 0.14366028 -0.08160965 -0.47571853 0.45318213 -0.16282581 -0.12690602 -0.3680378 0.27853167 -0.3966425 0.20250024 0.45825443 0.0096140625 0.6094132 0.2559689 0.20975113 0.2932536 -0.20682192 0.549659 0.107298076 0.5560096 0.013220583
1546 -0.40288734 0.6571454 0.22429398 -0.46733624 0.38021964 -0.07531594 -0.051246595 -0.76266265 -0.06057983 0.28790256 -0.085688494 -0.06190188 -0.45099312 -0.12688273 0.25896674 -0.7976953 -0.22529924 -0.415919 -0.47621453 -0.44487718 -0.19601725 -0.056628603 0.29587817 -0.3553964 0.30010203 0.09775766 0.4491984 -0.2653679 -0.13896425 -0.12025941 -0.51363206 0.2191885
1644 -0.025079416 0.37250856 0.011797238 -0.17421024 0.4629255 -0.46906653 0.32972524 -0.67166084 -0.025812713 0.046684183 0.14719948 0.15903366 0.14790685 -0.43042177 0.5703436 -0.5631158 0.084712654 0.1990768 -0.3411652 -0.17508438 0.091739714 0.15050444 0.29626435 -0.19873196 0.4362127 -0.2243584 0.32695463 -0.57245463 -0.05899014 -0.064968646 -0.19795814 0.4315496
803 0.07856699 0.17222546 0.24371152 -0.051862665 -0.18766075 -0.17701578 0.035063397 -0.46344554 0.056716535 0.25333026 0.21047911 0.12444967 0.50049174 -0.5471772 0.2282566 -0.84452313 0.35123056 -0.11374877 -0.025056323 -0.4176293 -0.27534315 0.254539 0.2693193 -0.10998517 0.55065763 0.04474236 0.20925243 -0.46413556 -0.024854599 0.5283895 -0.27537256 0.20140667
217 -0.011292295 0.38741976 0.10925661 -0.62330276 0.2053041 -0.032413945 0.087199174 -0.7796272 0.29951975 0.13133036 -0.10517896 0.17112155 0.091366604 -0.6101427 0.15649794 -0.011836695 -0.09446934 -0.5343909 0.106916785 0.12909292 0.40381777 0.2604529 -0.32714906 0.19811718 -0.20617448 0.111086644 -0.78608525 -0.60941625 0.2682577 -0.06191112 0.18058635 -0.28856304
430 0.091850005 0.72172534 0.24816461 -0.1676548 -0.28716716 -0.07323273 -0.136261 -0.14775313 0.10675796 0.75614345 -0.3456863 0.5333467 0.2605034 -0.6069586 0.6213885 -0.505253 -0.081034735 -0.009401998 -0.31744123 -0.16494085 -0.05191157 -0.17279252 -0.21599178 -0.03582662 0.05191476 0.11583678 -0.15318383 -0.2641809 -0.21583968 0.31227085 -0.3359096 -0.13025682
1046 -0.027386574 0.2542391 -0.20621763 -0.08250999 -0.090208285 -0.11645965 -0.0019923935 -0.35507458 0.42700383 0.6801922 0.17542115 0.3651185 0.3038522 -0.46581286 -0.024668293 -0.7011159 0.1241769 -0.44864246 -0.1060315 0.46394864 -0.2073346 0.50647724 -0.19477813 -0.27647564 0.51709217 0.0041158237 0.26683593 -0.17497182 0.63126945 0.05055651 0.6222908 -0.3271778
1361 -0.24167131 -0.80674416 0.29316795 0.012921484 0.09455983 -0.39948702 0.23741218 -0.23322104 0.07780144 -0.27523416 0.004666437 0.19236942 0.3652714 -0.5432536 0.5047669 -0.6647514 -0.37776953 -0.024361134 0.48746127 0.09056395 0.30644807 -0.41079006 -0.61019063 0.012024546 0.5482622 0.8972588 -0.034924664 -0.86259955 0.011641948 -0.5509831 0.16140206 0.4085037
554 -0.08226951 0.10277249 -0.17395543 -0.045165714 0.045011375 0.109145604 -0.33124882 -0.1811899 0.38333812 0.37462404 0.38603923 -0.16961764 -0.09866982 -0.32826477 0.8636223 -0.42937905 -0.17254151 -0.5418717 -0.43070844 -0.4363952 0.30181527 -0.11788816 -0.33200112 0.27398092 0.38310835 -0.018131861 -0.35300618 -0.35397202 0.17344755 0.45283085 0.1441702 -0.16904832
1285 0.34803805 -0.009276254 -0.072642125 -0.38271764 -0.10080069 -0.082755156 -0.20780963 -0.8503282 0.17133826 0.38387752 0.83721673 0.043339472 -0.35871115 -0.05879933 -0.029860815 -0.85617834 0.074566334 0.021734588 -0.1808914 0.064961545 0.52858984 0.298062 -0.12469107 0.23337404 0.34705085 0.24041092 0.5992588 -0.00024526846 0.41674 0.009020311 -0.18642364 -0.28660336
60 0.8082801 0.37760374 -0.3494185 -0.37964967 0.00814143 -0.032996837 -0.06673646 -0.6246768 0.0002762034 0.24931906 -0.4406288 0.2388333 -0.056460284 -0.4152484 0.45829302 -0.76892406 -0.02094056 0.18054965 -0.17608048 0.048237644 0.090199515 0.11831921 -0.08054033 -0.039653532 0.38825357 0.036934957 0.12019352 -0.15039152 0.14772326 -0.19161451 -0.18896979 0.3163684
804 0.46606535 0.21231715 -0.019135023 -0.09782344 -0.022772413 0.48703718 -0.34441972 -0.33765957 0.11574541 0.9131448 0.1015312 -0.055891663 -0.24807489 -0.3579896 0.5161326 -0.84050846 0.23037317 0.06874877 -0.4657511 -0.09065374 -0.1862814 -0.46202552 0.1723101 -0.12883148 0.17810856 0.14952223 -0.051176377 -0.55934846 0.033070333 0.056139585 -0.18876563 0.11108864
1837 0.6599325 0.025915122 -0.021247456 -0.09845484 0.5687029 -0.04984015 -0.21942829 -0.5272704 -0.11633921 0.16592787 0.22989337 0.34919664 0.04319396 -0.4565877 0.44771641 -0.8405599 -0.3608804 0.3109775 -0.14747508 -0.25066906 0.43060425 0.10295236 0.15004458 0.1880601 0.5066288 -0.14380822 0.3190751 0.043629304 0.31651133 -0.13942564 -0.29833627 0.09216876
1528 -0.13289803 0.36165205 -0.60211605 -0.06998431 -0.11683721 -0.4595941 -0.15146972 -0.2093579 0.21457468 0.016744962 0.31666622 -0.003595323 -0.051121812 -0.8477394 0.49923453 -0.53998524 0.8147118 0.05897277 0.11791885 0.020587815 0.37381735 -0.15287092 -0.35817188 0.065321736 0.27351028 0.4688094 0.05341633 0.13612084 0.20332518 0.2764343 0.2660667 -0.34081507
424 0.24462128 0.44744617 -0.24110243 -0.4195858 0.23421952 -0.7155846 0.13736697 -0.67358166 -0.13687222 0.013071827 -0.1570414 -0.346981 -0.5448091 -0.17747581 0.3205767 -0.78625894 -0.16820233 0.12685359 -0.31032574 -0.1819923 0.26222312 0.10682167 0.12754294 0.061127234 0.5225577 0.008524499 0.50722486 -0.37800956 0.16186498 -0.22938652 -0.18343337 -0.055072878
631 0.35640436 0.28308576 -0.33743176 -0.43033263 -0.26128247 -0.32855752 -0.18674436 -0.13695699 0.08357143 0.51163393 0.016544132 0.070038125 -0.10999153 -0.42077458 0.22552367 -0.6217977 0.60265917 -0.5453916 -0.5273892 -0.29148456 0.034079235 0.23210487 -0.40472797 -0.2675853 0.056559786 0.35467008 -0.39695475 -0.31727645 -0.41409189 -0.04862554 0.10241313 -0.030015625
1429 -0.21465278 0.13587965 -0.14743583 -0.69221723 0.16472818 -0.5970565 -0.15070792 -0.41598797 0.21805397 0.51743543 0.16118401 0.34650287 -0.0055635907 -0.121776104 0.32232535 -0.605395 0.38938028 -0.5147147 -0.043559875 -0.3935239 0.26692498 0.4328315 -0.31907004 -0.60126483 0.22197124 -0.16597824 -0.37248164 -0.23912549 -0.35166657 -0.10178845 -0.2711976 0.11330342
159 0.39266032 0.61645764 -0.10614646 -0.15071686 -0.113431975 -0.51618594 0.12556946 -0.26336712 -0.29069155 0.21461643 -0.15028931 -0.05655914 0.25420767 -0.28263786 0.6939208 -0.8347326 0.29027554 0.400935 -0.10729299 -0.2351968 0.0032689923 -0.025120037 -0.47229335 0.069620155 0.08719574 0.32922032 -0.21734934 -0.43614224 -0.11635457 -0.038179204 0.3287616 -0.17389718
898 -0.42844063 0.09982654 -0.06413081 -0.72691244 0.3054267 -0.5468122 -0.069417715 -0.43804103 0.25970432 0.24113117 -0.0068419552 0.22920007 -0.06992172 -0.30328843 0.2932457 -0.606829 0.31489193 -0.67303157 -0.30765274 -0.638629 0.115653455 0.3331674 0.0715368 -0.81714183 0.33447507 -0.24593699 -0.06483136 -0.43604723 -0.56318843 -0.20959726 -0.4508842 -0.16494264
1082 0.021253731 0.041516375 -0.11074029 -0.40217435 0.03461688 0.31918415 0.035281103 0.31846097 0.6096287 -0.46948588 -0.17627366 -0.13842674 0.03827044 -0.30752945 0.6352082 -0.47458893 -0.37373343 -0.62022305 0.32655168 0.1095331 0.3543612 0.11356123 -0.5867239 -0.20375104 0.5810298 0.6464644 -0.10645182 -0.8247067 1.1191311 -0.61438364 0.118919715 0.27565226
139 0.46685112 0.13474424 0.43239006 -0.081007324 0.2106837 -0.36371484 -0.07436989 -0.464905 0.2365796 0.10576848 0.26873592 0.15554288 -0.4764565 -1.2396128 0.058976803 -0.4391871 0.11844145 0.2486216 0.1170426 0.37489375 -0.023104323 0.10292655 0.4420673 -0.26031458 0.56939644 0.22389263 0.51446444 -0.25573373 -0.16191792 0.2798365 -0.04663558 -0.37460908
1497 0.4671687 0.11709845 -0.26057926 -0.24863717 0.3196455 -0.06457692 0.25005853 -0.4594309 0.17721984 0.031980667 0.15966542 0.05695546 -0.3836604 -0.48746493 0.24969515 -0.88165885 -0.29622856 -0.21625523 -0.1220199 -0.17067061 0.7225908 0.020121347 0.43762925 0.20270893 -0.21943837 0.18693829 0.7455412 -0.08966332 0.38218725 0.030574802 0.08426572 -0.099607706
261 0.20441574 0.4410588 -0.055561468 -0.1119369 -0.51174474 -0.37274095 -0.22966251 -0.21455084 0.18277878 0.33455682 0.009773676 -0.01177517 0.05286207 -0.7088195 0.72554976 -0.6309679 0.09947443 -0.25642025 -0.2944671 -0.61847055 0.07254728 -0.00013147216 -0.21251386 0.039340075 0.204429 -0.0146436365 -0.40236473 0.09954479 -0.18957226 0.29539773 0.24540618 0.38962257
955 -0.34220982 -0.6635182 0.5634463 -0.34613967 0.5160801 -0.13610888 -0.26514545 0.3784322 0.57323396 0.10917577 0.13251875 -0.15462409 0.29398522 -0.9962425 0.015113027 -1.0031114 -0.5154866 0.04800997 0.21347624 0.19484583 0.46766108 -0.21303192 -0.45673463 -0.0787996 -0.078094006 1.0352762 0.12665255 -0.45810598 0.106848836 -0.7985078 0.29137892 0.33974645
269 -0.005607131 0.337001 -0.16070613 -0.64039356 -0.1755862 -0.43559286 -0.11717412 -0.04816348 0.20396125 0.38633856 -0.24267769 0.27963543 -0.16705708 -0.3677368 0.42722115 -0.80115366 0.44585457 -0.35048842 -0.25887927 -0.6978332 0.14423434 0.10055642 -0.19996288 -0.43126124 0.2891436 -0.080283254 -0.48834422 0.0503813 -0.27915698 -0.23850018 -0.09381351 0.10922828
1764 0.42009184 0.017521413 -0.05206807 -0.27937278 -0.0066892095 -0.26195872 -0.7234111 -0.2641071 0.12058627 0.51376885 0.16698243 0.29469395 0.30453703 -0.3577331 0.4310176 -0.3451512 0.11061931 0.055195495 -0.31674084 -0.26087296 0.14469302 0.24345335 -0.44665313 0.08212863 0.15007572 0.60618126 0.15658675 -0.20119616 0.11892459 0.4154213 0.088023424 -0.3556143
1899 -0.399816 0.37843606 0.05374088 -0.62212586 -0.12596066 0.28063652 -0.067853145 -0.7133083 0.22620456 0.07815766 0.38205162 0.14485851 0.09481749 -0.6930577 0.4462282 -0.44456986 0.055876818 -0.32193804 -0.23493208 0.08638796 0.3968797 0.43869638 -0.2774588 0.40362406 -0.30294052 0.0054653506 -0.7637013 -0.2646404 -0.046610434 0.17268363 -0.05789939 -0.04448191
1826 0.26773298 0.30415294 -0.111022994 -0.12244242 0.1578093 -0.74443704 0.23185214 -0.506264 1.0844529 0.22356313 0.19451535 0.38159743 0.12224276 -0.5920729 0.1429182 -0.6682184 0.13123783 0.046521883 -0.0010939745 -0.03292167 0.2508364 -0.009212799 0.59781957 0.24738249 -0.07507337 0.20285179 0.26321882 0.02377731 0.64887875 -0.05287106 0.118589886 -0.17193508
1486 -0.52387536 -0.5961795 0.3914881 -0.2831793 0.3082688 -0.052342635 -0.1804151 0.36462674 0.558397 -0.11267359 0.22053504 -0.10406972 0.54336995 -0.9505421 0.16351074 -1.0361439 -0.6354469 -0.003192527 0.15077221 0.2579126 0.40593112 -0.12475186 -0.23733883 0.025706468 -0.08959134 0.9807364 -0.19540617 -0.53732204 -0.05515849 -0.5562067 0.100935236 0.19526494
